{"learner":{"attributes":{"best_iteration":"99","best_ntree_limit":"100","scikit_learn":"{\"use_label_encoder\": false, \"n_estimators\": 100, \"objective\": \"multi:softprob\", \"max_depth\": null, \"max_leaves\": null, \"max_bin\": null, \"grow_policy\": null, \"learning_rate\": null, \"verbosity\": null, \"booster\": null, \"tree_method\": null, \"gamma\": null, \"min_child_weight\": null, \"max_delta_step\": null, \"subsample\": null, \"sampling_method\": null, \"colsample_bytree\": null, \"colsample_bylevel\": null, \"colsample_bynode\": null, \"reg_alpha\": null, \"reg_lambda\": null, \"scale_pos_weight\": null, \"base_score\": null, \"missing\": NaN, \"num_parallel_tree\": null, \"random_state\": null, \"n_jobs\": null, \"monotone_constraints\": null, \"interaction_constraints\": null, \"importance_type\": null, \"gpu_id\": null, \"validate_parameters\": null, \"predictor\": null, \"enable_categorical\": false, \"max_cat_to_onehot\": null, \"eval_metric\": null, \"early_stopping_rounds\": null, \"callbacks\": null, \"classes_\": [0, 1, 2, 3, 4, 5, 6, 7, 8, 9, 10, 11, 12, 13, 14, 15, 16, 17, 18, 19, 20, 21, 22, 23, 24, 25, 26, 27, 28, 29, 30, 31, 32, 33, 34, 35, 36, 37, 38, 39, 40], \"n_classes_\": 41, \"_estimator_type\": \"classifier\"}"},"feature_names":["abdominal_pain","abnormal_menstruation","acidity","acute_liver_failure","altered_sensorium","anxiety","back_pain","belly_pain","blackheads","bladder_discomfort","blister","blood_in_sputum","bloody_stool","blurred_and_distorted_vision","breathlessness","brittle_nails","bruising","burning_micturition","chest_pain","chills","cold_hands_and_feets","coma","congestion","constipation","continuous_feel_of_urine","continuous_sneezing","cough","cramps","dark_urine","dehydration","depression","diarrhoea","dischromic _patches","distention_of_abdomen","dizziness","drying_and_tingling_lips","enlarged_thyroid","excessive_hunger","extra_marital_contacts","family_history","fast_heart_rate","fatigue","fluid_overload","foul_smell_of urine","headache","high_fever","hip_joint_pain","history_of_alcohol_consumption","increased_appetite","indigestion","inflammatory_nails","internal_itching","irregular_sugar_level","irritability","irritation_in_anus","itching","joint_pain","knee_pain","lack_of_concentration","lethargy","loss_of_appetite","loss_of_balance","loss_of_smell","malaise","mild_fever","mood_swings","movement_stiffness","mucoid_sputum","muscle_pain","muscle_wasting","muscle_weakness","nausea","neck_pain","nodal_skin_eruptions","obesity","pain_behind_the_eyes","pain_during_bowel_movements","pain_in_anal_region","painful_walking","palpitations","passage_of_gases","patches_in_throat","phlegm","polyuria","prominent_veins_on_calf","puffy_face_and_eyes","pus_filled_pimples","receiving_blood_transfusion","receiving_unsterile_injections","red_sore_around_nose","red_spots_over_body","redness_of_eyes","restlessness","runny_nose","rusty_sputum","scurring","shivering","silver_like_dusting","sinus_pressure","skin_peeling","skin_rash","slurred_speech","small_dents_in_nails","spinning_movements","spotting_ urination","stiff_neck","stomach_bleeding","stomach_pain","sunken_eyes","sweating","swelled_lymph_nodes","swelling_joints","swelling_of_stomach","swollen_blood_vessels","swollen_extremeties","swollen_legs","throat_irritation","toxic_look_(typhos)","ulcers_on_tongue","unsteadiness","visual_disturbances","vomiting","watering_from_eyes","weakness_in_limbs","weakness_of_one_body_side","weight_gain","weight_loss","yellow_crust_ooze","yellow_urine","yellowing_of_eyes","yellowish_skin"],"feature_types":["int","int","int","int","int","int","int","int","int","int","int","int","int","int","int","int","int","int","int","int","int","int","int","int","int","int","int","int","int","int","int","int","int","int","int","int","int","int","int","int","int","int","int","int","int","int","int","int","int","int","int","int","int","int","int","int","int","int","int","int","int","int","int","int","int","int","int","int","int","int","int","int","int","int","int","int","int","int","int","int","int","int","int","int","int","int","int","int","int","int","int","int","int","int","int","int","int","int","int","int","int","int","int","int","int","int","int","int","int","int","int","int","int","int","int","int","int","int","int","int","int","int","int","int","int","int","int","int","int","int","int"],"gradient_booster":{"model":{"gbtree_model_param":{"num_parallel_tree":"1","num_trees":"4100","size_leaf_vector":"0"},"tree_info":[0,1,2,3,4,5,6,7,8,9,10,11,12,13,14,15,16,17,18,19,20,21,22,23,24,25,26,27,28,29,30,31,32,33,34,35,36,37,38,39,40,0,1,2,3,4,5,6,7,8,9,10,11,12,13,14,15,16,17,18,19,20,21,22,23,24,25,26,27,28,29,30,31,32,33,34,35,36,37,38,39,40,0,1,2,3,4,5,6,7,8,9,10,11,12,13,14,15,16,17,18,19,20,21,22,23,24,25,26,27,28,29,30,31,32,33,34,35,36,37,38,39,40,0,1,2,3,4,5,6,7,8,9,10,11,12,13,14,15,16,17,18,19,20,21,22,23,24,25,26,27,28,29,30,31,32,33,34,35,36,37,38,39,40,0,1,2,3,4,5,6,7,8,9,10,11,12,13,14,15,16,17,18,19,20,21,22,23,24,25,26,27,28,29,30,31,32,33,34,35,36,37,38,39,40,0,1,2,3,4,5,6,7,8,9,10,11,12,13,14,15,16,17,18,19,20,21,22,23,24,25,26,27,28,29,30,31,32,33,34,35,36,37,38,39,40,0,1,2,3,4,5,6,7,8,9,10,11,12,13,14,15,16,17,18,19,20,21,22,23,24,25,26,27,28,29,30,31,32,33,34,35,36,37,38,39,40,0,1,2,3,4,5,6,7,8,9,10,11,12,13,14,15,16,17,18,19,20,21,22,23,24,25,26,27,28,29,30,31,32,33,34,35,36,37,38,39,40,0,1,2,3,4,5,6,7,8,9,10,11,12,13,14,15,16,17,18,19,20,21,22,23,24,25,26,27,28,29,30,31,32,33,34,35,36,37,38,39,40,0,1,2,3,4,5,6,7,8,9,10,11,12,13,14,15,16,17,18,19,20,21,22,23,24,25,26,27,28,29,30,31,32,33,34,35,36,37,38,39,40,0,1,2,3,4,5,6,7,8,9,10,11,12,13,14,15,16,17,18,19,20,21,22,23,24,25,26,27,28,29,30,31,32,33,34,35,36,37,38,39,40,0,1,2,3,4,5,6,7,8,9,10,11,12,13,14,15,16,17,18,19,20,21,22,23,24,25,26,27,28,29,30,31,32,33,34,35,36,37,38,39,40,0,1,2,3,4,5,6,7,8,9,10,11,12,13,14,15,16,17,18,19,20,21,22,23,24,25,26,27,28,29,30,31,32,33,34,35,36,37,38,39,40,0,1,2,3,4,5,6,7,8,9,10,11,12,13,14,15,16,17,18,19,20,21,22,23,24,25,26,27,28,29,30,31,32,33,34,35,36,37,38,39,40,0,1,2,3,4,5,6,7,8,9,10,11,12,13,14,15,16,17,18,19,20,21,22,23,24,25,26,27,28,29,30,31,32,33,34,35,36,37,38,39,40,0,1,2,3,4,5,6,7,8,9,10,11,12,13,14,15,16,17,18,19,20,21,22,23,24,25,26,27,28,29,30,31,32,33,34,35,36,37,38,39,40,0,1,2,3,4,5,6,7,8,9,10,11,12,13,14,15,16,17,18,19,20,21,22,23,24,25,26,27,28,29,30,31,32,33,34,35,36,37,38,39,40,0,1,2,3,4,5,6,7,8,9,10,11,12,13,14,15,16,17,18,19,20,21,22,23,24,25,26,27,28,29,30,31,32,33,34,35,36,37,38,39,40,0,1,2,3,4,5,6,7,8,9,10,11,12,13,14,15,16,17,18,19,20,21,22,23,24,25,26,27,28,29,30,31,32,33,34,35,36,37,38,39,40,0,1,2,3,4,5,6,7,8,9,10,11,12,13,14,15,16,17,18,19,20,21,22,23,24,25,26,27,28,29,30,31,32,33,34,35,36,37,38,39,40,0,1,2,3,4,5,6,7,8,9,10,11,12,13,14,15,16,17,18,19,20,21,22,23,24,25,26,27,28,29,30,31,32,33,34,35,36,37,38,39,40,0,1,2,3,4,5,6,7,8,9,10,11,12,13,14,15,16,17,18,19,20,21,22,23,24,25,26,27,28,29,30,31,32,33,34,35,36,37,38,39,40,0,1,2,3,4,5,6,7,8,9,10,11,12,13,14,15,16,17,18,19,20,21,22,23,24,25,26,27,28,29,30,31,32,33,34,35,36,37,38,39,40,0,1,2,3,4,5,6,7,8,9,10,11,12,13,14,15,16,17,18,19,20,21,22,23,24,25,26,27,28,29,30,31,32,33,34,35,36,37,38,39,40,0,1,2,3,4,5,6,7,8,9,10,11,12,13,14,15,16,17,18,19,20,21,22,23,24,25,26,27,28,29,30,31,32,33,34,35,36,37,38,39,40,0,1,2,3,4,5,6,7,8,9,10,11,12,13,14,15,16,17,18,19,20,21,22,23,24,25,26,27,28,29,30,31,32,33,34,35,36,37,38,39,40,0,1,2,3,4,5,6,7,8,9,10,11,12,13,14,15,16,17,18,19,20,21,22,23,24,25,26,27,28,29,30,31,32,33,34,35,36,37,38,39,40,0,1,2,3,4,5,6,7,8,9,10,11,12,13,14,15,16,17,18,19,20,21,22,23,24,25,26,27,28,29,30,31,32,33,34,35,36,37,38,39,40,0,1,2,3,4,5,6,7,8,9,10,11,12,13,14,15,16,17,18,19,20,21,22,23,24,25,26,27,28,29,30,31,32,33,34,35,36,37,38,39,40,0,1,2,3,4,5,6,7,8,9,10,11,12,13,14,15,16,17,18,19,20,21,22,23,24,25,26,27,28,29,30,31,32,33,34,35,36,37,38,39,40,0,1,2,3,4,5,6,7,8,9,10,11,12,13,14,15,16,17,18,19,20,21,22,23,24,25,26,27,28,29,30,31,32,33,34,35,36,37,38,39,40,0,1,2,3,4,5,6,7,8,9,10,11,12,13,14,15,16,17,18,19,20,21,22,23,24,25,26,27,28,29,30,31,32,33,34,35,36,37,38,39,40,0,1,2,3,4,5,6,7,8,9,10,11,12,13,14,15,16,17,18,19,20,21,22,23,24,25,26,27,28,29,30,31,32,33,34,35,36,37,38,39,40,0,1,2,3,4,5,6,7,8,9,10,11,12,13,14,15,16,17,18,19,20,21,22,23,24,25,26,27,28,29,30,31,32,33,34,35,36,37,38,39,40,0,1,2,3,4,5,6,7,8,9,10,11,12,13,14,15,16,17,18,19,20,21,22,23,24,25,26,27,28,29,30,31,32,33,34,35,36,37,38,39,40,0,1,2,3,4,5,6,7,8,9,10,11,12,13,14,15,16,17,18,19,20,21,22,23,24,25,26,27,28,29,30,31,32,33,34,35,36,37,38,39,40,0,1,2,3,4,5,6,7,8,9,10,11,12,13,14,15,16,17,18,19,20,21,22,23,24,25,26,27,28,29,30,31,32,33,34,35,36,37,38,39,40,0,1,2,3,4,5,6,7,8,9,10,11,12,13,14,15,16,17,18,19,20,21,22,23,24,25,26,27,28,29,30,31,32,33,34,35,36,37,38,39,40,0,1,2,3,4,5,6,7,8,9,10,11,12,13,14,15,16,17,18,19,20,21,22,23,24,25,26,27,28,29,30,31,32,33,34,35,36,37,38,39,40,0,1,2,3,4,5,6,7,8,9,10,11,12,13,14,15,16,17,18,19,20,21,22,23,24,25,26,27,28,29,30,31,32,33,34,35,36,37,38,39,40,0,1,2,3,4,5,6,7,8,9,10,11,12,13,14,15,16,17,18,19,20,21,22,23,24,25,26,27,28,29,30,31,32,33,34,35,36,37,38,39,40,0,1,2,3,4,5,6,7,8,9,10,11,12,13,14,15,16,17,18,19,20,21,22,23,24,25,26,27,28,29,30,31,32,33,34,35,36,37,38,39,40,0,1,2,3,4,5,6,7,8,9,10,11,12,13,14,15,16,17,18,19,20,21,22,23,24,25,26,27,28,29,30,31,32,33,34,35,36,37,38,39,40,0,1,2,3,4,5,6,7,8,9,10,11,12,13,14,15,16,17,18,19,20,21,22,23,24,25,26,27,28,29,30,31,32,33,34,35,36,37,38,39,40,0,1,2,3,4,5,6,7,8,9,10,11,12,13,14,15,16,17,18,19,20,21,22,23,24,25,26,27,28,29,30,31,32,33,34,35,36,37,38,39,40,0,1,2,3,4,5,6,7,8,9,10,11,12,13,14,15,16,17,18,19,20,21,22,23,24,25,26,27,28,29,30,31,32,33,34,35,36,37,38,39,40,0,1,2,3,4,5,6,7,8,9,10,11,12,13,14,15,16,17,18,19,20,21,22,23,24,25,26,27,28,29,30,31,32,33,34,35,36,37,38,39,40,0,1,2,3,4,5,6,7,8,9,10,11,12,13,14,15,16,17,18,19,20,21,22,23,24,25,26,27,28,29,30,31,32,33,34,35,36,37,38,39,40,0,1,2,3,4,5,6,7,8,9,10,11,12,13,14,15,16,17,18,19,20,21,22,23,24,25,26,27,28,29,30,31,32,33,34,35,36,37,38,39,40,0,1,2,3,4,5,6,7,8,9,10,11,12,13,14,15,16,17,18,19,20,21,22,23,24,25,26,27,28,29,30,31,32,33,34,35,36,37,38,39,40,0,1,2,3,4,5,6,7,8,9,10,11,12,13,14,15,16,17,18,19,20,21,22,23,24,25,26,27,28,29,30,31,32,33,34,35,36,37,38,39,40,0,1,2,3,4,5,6,7,8,9,10,11,12,13,14,15,16,17,18,19,20,21,22,23,24,25,26,27,28,29,30,31,32,33,34,35,36,37,38,39,40,0,1,2,3,4,5,6,7,8,9,10,11,12,13,14,15,16,17,18,19,20,21,22,23,24,25,26,27,28,29,30,31,32,33,34,35,36,37,38,39,40,0,1,2,3,4,5,6,7,8,9,10,11,12,13,14,15,16,17,18,19,20,21,22,23,24,25,26,27,28,29,30,31,32,33,34,35,36,37,38,39,40,0,1,2,3,4,5,6,7,8,9,10,11,12,13,14,15,16,17,18,19,20,21,22,23,24,25,26,27,28,29,30,31,32,33,34,35,36,37,38,39,40,0,1,2,3,4,5,6,7,8,9,10,11,12,13,14,15,16,17,18,19,20,21,22,23,24,25,26,27,28,29,30,31,32,33,34,35,36,37,38,39,40,0,1,2,3,4,5,6,7,8,9,10,11,12,13,14,15,16,17,18,19,20,21,22,23,24,25,26,27,28,29,30,31,32,33,34,35,36,37,38,39,40,0,1,2,3,4,5,6,7,8,9,10,11,12,13,14,15,16,17,18,19,20,21,22,23,24,25,26,27,28,29,30,31,32,33,34,35,36,37,38,39,40,0,1,2,3,4,5,6,7,8,9,10,11,12,13,14,15,16,17,18,19,20,21,22,23,24,25,26,27,28,29,30,31,32,33,34,35,36,37,38,39,40,0,1,2,3,4,5,6,7,8,9,10,11,12,13,14,15,16,17,18,19,20,21,22,23,24,25,26,27,28,29,30,31,32,33,34,35,36,37,38,39,40,0,1,2,3,4,5,6,7,8,9,10,11,12,13,14,15,16,17,18,19,20,21,22,23,24,25,26,27,28,29,30,31,32,33,34,35,36,37,38,39,40,0,1,2,3,4,5,6,7,8,9,10,11,12,13,14,15,16,17,18,19,20,21,22,23,24,25,26,27,28,29,30,31,32,33,34,35,36,37,38,39,40,0,1,2,3,4,5,6,7,8,9,10,11,12,13,14,15,16,17,18,19,20,21,22,23,24,25,26,27,28,29,30,31,32,33,34,35,36,37,38,39,40,0,1,2,3,4,5,6,7,8,9,10,11,12,13,14,15,16,17,18,19,20,21,22,23,24,25,26,27,28,29,30,31,32,33,34,35,36,37,38,39,40,0,1,2,3,4,5,6,7,8,9,10,11,12,13,14,15,16,17,18,19,20,21,22,23,24,25,26,27,28,29,30,31,32,33,34,35,36,37,38,39,40,0,1,2,3,4,5,6,7,8,9,10,11,12,13,14,15,16,17,18,19,20,21,22,23,24,25,26,27,28,29,30,31,32,33,34,35,36,37,38,39,40,0,1,2,3,4,5,6,7,8,9,10,11,12,13,14,15,16,17,18,19,20,21,22,23,24,25,26,27,28,29,30,31,32,33,34,35,36,37,38,39,40,0,1,2,3,4,5,6,7,8,9,10,11,12,13,14,15,16,17,18,19,20,21,22,23,24,25,26,27,28,29,30,31,32,33,34,35,36,37,38,39,40,0,1,2,3,4,5,6,7,8,9,10,11,12,13,14,15,16,17,18,19,20,21,22,23,24,25,26,27,28,29,30,31,32,33,34,35,36,37,38,39,40,0,1,2,3,4,5,6,7,8,9,10,11,12,13,14,15,16,17,18,19,20,21,22,23,24,25,26,27,28,29,30,31,32,33,34,35,36,37,38,39,40,0,1,2,3,4,5,6,7,8,9,10,11,12,13,14,15,16,17,18,19,20,21,22,23,24,25,26,27,28,29,30,31,32,33,34,35,36,37,38,39,40,0,1,2,3,4,5,6,7,8,9,10,11,12,13,14,15,16,17,18,19,20,21,22,23,24,25,26,27,28,29,30,31,32,33,34,35,36,37,38,39,40,0,1,2,3,4,5,6,7,8,9,10,11,12,13,14,15,16,17,18,19,20,21,22,23,24,25,26,27,28,29,30,31,32,33,34,35,36,37,38,39,40,0,1,2,3,4,5,6,7,8,9,10,11,12,13,14,15,16,17,18,19,20,21,22,23,24,25,26,27,28,29,30,31,32,33,34,35,36,37,38,39,40,0,1,2,3,4,5,6,7,8,9,10,11,12,13,14,15,16,17,18,19,20,21,22,23,24,25,26,27,28,29,30,31,32,33,34,35,36,37,38,39,40,0,1,2,3,4,5,6,7,8,9,10,11,12,13,14,15,16,17,18,19,20,21,22,23,24,25,26,27,28,29,30,31,32,33,34,35,36,37,38,39,40,0,1,2,3,4,5,6,7,8,9,10,11,12,13,14,15,16,17,18,19,20,21,22,23,24,25,26,27,28,29,30,31,32,33,34,35,36,37,38,39,40,0,1,2,3,4,5,6,7,8,9,10,11,12,13,14,15,16,17,18,19,20,21,22,23,24,25,26,27,28,29,30,31,32,33,34,35,36,37,38,39,40,0,1,2,3,4,5,6,7,8,9,10,11,12,13,14,15,16,17,18,19,20,21,22,23,24,25,26,27,28,29,30,31,32,33,34,35,36,37,38,39,40,0,1,2,3,4,5,6,7,8,9,10,11,12,13,14,15,16,17,18,19,20,21,22,23,24,25,26,27,28,29,30,31,32,33,34,35,36,37,38,39,40,0,1,2,3,4,5,6,7,8,9,10,11,12,13,14,15,16,17,18,19,20,21,22,23,24,25,26,27,28,29,30,31,32,33,34,35,36,37,38,39,40,0,1,2,3,4,5,6,7,8,9,10,11,12,13,14,15,16,17,18,19,20,21,22,23,24,25,26,27,28,29,30,31,32,33,34,35,36,37,38,39,40,0,1,2,3,4,5,6,7,8,9,10,11,12,13,14,15,16,17,18,19,20,21,22,23,24,25,26,27,28,29,30,31,32,33,34,35,36,37,38,39,40,0,1,2,3,4,5,6,7,8,9,10,11,12,13,14,15,16,17,18,19,20,21,22,23,24,25,26,27,28,29,30,31,32,33,34,35,36,37,38,39,40,0,1,2,3,4,5,6,7,8,9,10,11,12,13,14,15,16,17,18,19,20,21,22,23,24,25,26,27,28,29,30,31,32,33,34,35,36,37,38,39,40,0,1,2,3,4,5,6,7,8,9,10,11,12,13,14,15,16,17,18,19,20,21,22,23,24,25,26,27,28,29,30,31,32,33,34,35,36,37,38,39,40,0,1,2,3,4,5,6,7,8,9,10,11,12,13,14,15,16,17,18,19,20,21,22,23,24,25,26,27,28,29,30,31,32,33,34,35,36,37,38,39,40,0,1,2,3,4,5,6,7,8,9,10,11,12,13,14,15,16,17,18,19,20,21,22,23,24,25,26,27,28,29,30,31,32,33,34,35,36,37,38,39,40,0,1,2,3,4,5,6,7,8,9,10,11,12,13,14,15,16,17,18,19,20,21,22,23,24,25,26,27,28,29,30,31,32,33,34,35,36,37,38,39,40,0,1,2,3,4,5,6,7,8,9,10,11,12,13,14,15,16,17,18,19,20,21,22,23,24,25,26,27,28,29,30,31,32,33,34,35,36,37,38,39,40,0,1,2,3,4,5,6,7,8,9,10,11,12,13,14,15,16,17,18,19,20,21,22,23,24,25,26,27,28,29,30,31,32,33,34,35,36,37,38,39,40,0,1,2,3,4,5,6,7,8,9,10,11,12,13,14,15,16,17,18,19,20,21,22,23,24,25,26,27,28,29,30,31,32,33,34,35,36,37,38,39,40,0,1,2,3,4,5,6,7,8,9,10,11,12,13,14,15,16,17,18,19,20,21,22,23,24,25,26,27,28,29,30,31,32,33,34,35,36,37,38,39,40,0,1,2,3,4,5,6,7,8,9,10,11,12,13,14,15,16,17,18,19,20,21,22,23,24,25,26,27,28,29,30,31,32,33,34,35,36,37,38,39,40,0,1,2,3,4,5,6,7,8,9,10,11,12,13,14,15,16,17,18,19,20,21,22,23,24,25,26,27,28,29,30,31,32,33,34,35,36,37,38,39,40,0,1,2,3,4,5,6,7,8,9,10,11,12,13,14,15,16,17,18,19,20,21,22,23,24,25,26,27,28,29,30,31,32,33,34,35,36,37,38,39,40,0,1,2,3,4,5,6,7,8,9,10,11,12,13,14,15,16,17,18,19,20,21,22,23,24,25,26,27,28,29,30,31,32,33,34,35,36,37,38,39,40,0,1,2,3,4,5,6,7,8,9,10,11,12,13,14,15,16,17,18,19,20,21,22,23,24,25,26,27,28,29,30,31,32,33,34,35,36,37,38,39,40,0,1,2,3,4,5,6,7,8,9,10,11,12,13,14,15,16,17,18,19,20,21,22,23,24,25,26,27,28,29,30,31,32,33,34,35,36,37,38,39,40,0,1,2,3,4,5,6,7,8,9,10,11,12,13,14,15,16,17,18,19,20,21,22,23,24,25,26,27,28,29,30,31,32,33,34,35,36,37,38,39,40],"trees":[{"base_weights":[-5.310163E-3,-4.7712165E-1,1.658448E1,-5.095689E-1,1.2394632E-1,2.6689918E0,-4.5670617E-1],"categories":[],"categories_nodes":[],"categories_segments":[],"categories_sizes":[],"default_left":[1,1,0,0,1,0,0],"id":0,"left_children":[1,3,-1,-1,5,-1,-1],"loss_changes":[1.4819182E3,3.6533012E0,0E0,0E0,1.6340548E1,0E0,0E0],"parents":[2147483647,0,0,1,1,4,4],"right_children":[2,4,-1,-1,6,-1,-1],"split_conditions":[5E-1,5E-1,4.975344E0,-1.5287068E-1,5E-1,8.0069757E-1,-1.3701186E-1],"split_indices":[103,61,0,0,34,0,0],"split_type":[0,0,0,0,0,0,0],"sum_hessian":[1.8731706E2,1.830815E2,4.235574E0,1.7384889E2,9.232599E0,1.0469958E0,8.185603E0],"tree_param":{"num_deleted":"0","num_feature":"131","num_nodes":"7","size_leaf_vector":"0"}},{"base_weights":[-5.310163E-3,-4.662808E-1,1.6511978E1,-5.0874907E-1,-3.3714047E-1,2.1753997E-1,-4.9897143E-1,7.65021E-1,-4.2704096E-1,2.6248631E0,-4.0896526E-1],"categories":[],"categories_nodes":[],"categories_segments":[],"categories_sizes":[],"default_left":[1,1,0,0,1,1,0,1,0,0,0],"id":1,"left_children":[1,3,-1,-1,5,7,-1,9,-1,-1,-1],"loss_changes":[1.4415425E3,8.3857346E-1,0E0,0E0,4.4659944E0,4.4415746E0,0E0,1.5622311E1,0E0,0E0,0E0],"parents":[2147483647,0,0,1,1,4,4,5,5,7,7],"right_children":[2,4,-1,-1,6,8,-1,10,-1,-1,-1],"split_conditions":[5E-1,5E-1,4.9535937E0,-1.5262473E-1,5E-1,5E-1,-1.4969143E-1,5E-1,-1.281123E-1,7.8745896E-1,-1.2268958E-1],"split_indices":[69,45,0,0,41,121,0,100,0,0,0],"split_type":[0,0,0,0,0,0,0,0,0,0,0],"sum_hessian":[1.8731706E2,1.8317667E2,4.1403923E0,1.3563354E2,4.7543125E1,1.066032E1,3.6882805E1,5.6632953E0,4.9970255E0,1.7132659E0,3.9500296E0],"tree_param":{"num_deleted":"0","num_feature":"131","num_nodes":"11","size_leaf_vector":"0"}},{"base_weights":[1.593061E-2,-4.66233E-1,1.6654392E1,-5.0925344E-1,-1.9870177E-1,4.8195634E-2,-4.7291026E-1,6.9597167E-1,-4.564156E-1,2.5707824E0,-4.1549376E-1],"categories":[],"categories_nodes":[],"categories_segments":[],"categories_sizes":[],"default_left":[1,1,0,0,1,1,0,1,0,0,0],"id":2,"left_children":[1,3,-1,-1,5,7,-1,9,-1,-1,-1],"loss_changes":[1.5185309E3,2.0163689E0,0E0,0E0,1.8593478E0,5.280281E0,0E0,1.5746386E1,0E0,0E0,0E0],"parents":[2147483647,0,0,1,1,4,4,5,5,7,7],"right_children":[2,4,-1,-1,6,8,-1,10,-1,-1,-1],"split_conditions":[5E-1,5E-1,4.996318E0,-1.5277603E-1,5E-1,5E-1,-1.4187308E-1,5E-1,-1.3692468E-1,7.7123475E-1,-1.2464813E-1],"split_indices":[86,100,0,0,45,55,0,56,0,0,0],"split_type":[0,0,0,0,0,0,0,0,0,0,0],"sum_hessian":[1.8731706E2,1.8298631E2,4.330755E0,1.5685901E2,2.6127304E1,1.4182034E1,1.1945271E1,6.044021E0,8.138013E0,1.7608565E0,4.2831645E0],"tree_param":{"num_deleted":"0","num_feature":"131","num_nodes":"11","size_leaf_vector":"0"}},{"base_weights":[1.593061E-2,-4.8794833E-1,1.6786985E1,-5.091452E-1,-3.716127E-1,1.5051135E-1,-4.9295616E-1,1.5940018E0,-4.220145E-1],"categories":[],"categories_nodes":[],"categories_segments":[],"categories_sizes":[],"default_left":[1,1,0,0,1,1,0,0,0],"id":3,"left_children":[1,3,-1,-1,5,7,-1,-1,-1],"loss_changes":[1.5995797E3,2.6402664E-1,0E0,0E0,2.103445E0,6.297468E0,0E0,0E0,0E0],"parents":[2147483647,0,0,1,1,4,4,5,5],"right_children":[2,4,-1,-1,6,8,-1,-1,-1],"split_conditions":[5E-1,5E-1,5.0360956E0,-1.5274356E-1,5E-1,5E-1,-1.4788686E-1,4.7820055E-1,-1.2660436E-1],"split_indices":[33,130,0,0,129,55,0,0,0],"split_type":[0,0,0,0,0,0,0,0,0],"sum_hessian":[1.8731706E2,1.8279594E2,4.521118E0,1.517668E2,3.1029148E1,5.8060675E0,2.522308E1,1.1421772E0,4.6638904E0],"tree_param":{"num_deleted":"0","num_feature":"131","num_nodes":"9","size_leaf_vector":"0"}},{"base_weights":[-2.6550936E-2,-4.6632853E-1,1.6358612E1,-5.0964886E-1,1.0031778E0],"categories":[],"categories_nodes":[],"categories_segments":[],"categories_sizes":[],"default_left":[1,1,0,0,0],"id":4,"left_children":[1,3,-1,-1,-1],"loss_changes":[1.3646086E3,1.2247978E1,0E0,0E0,0E0],"parents":[2147483647,0,0,1,1],"right_children":[2,4,-1,-1,-1],"split_conditions":[5E-1,5E-1,4.9075837E0,-1.5289466E-1,3.0095333E-1],"split_indices":[122,25,0,0,0],"split_type":[0,0,0,0,0],"sum_hessian":[1.8731706E2,1.8336703E2,3.9500296E0,1.7875073E2,4.6162996E0],"tree_param":{"num_deleted":"0","num_feature":"131","num_nodes":"5","size_leaf_vector":"0"}},{"base_weights":[-1.593055E-2,-4.8798642E-1,1.658448E1,-5.096496E-1,3.4162825E-1],"categories":[],"categories_nodes":[],"categories_segments":[],"categories_sizes":[],"default_left":[1,1,0,0,0],"id":5,"left_children":[1,3,-1,-1,-1],"loss_changes":[1.4838059E3,3.4824371E0,0E0,0E0,0E0],"parents":[2147483647,0,0,1,1],"right_children":[2,4,-1,-1,-1],"split_conditions":[5E-1,5E-1,4.975344E0,-1.5289488E-1,1.0248848E-1],"split_indices":[66,105,0,0,0],"split_type":[0,0,0,0,0],"sum_hessian":[1.8731706E2,1.830815E2,4.235574E0,1.7879832E2,4.2831645E0],"tree_param":{"num_deleted":"0","num_feature":"131","num_nodes":"5","size_leaf_vector":"0"}},{"base_weights":[-2.1240743E-2,-4.8799273E-1,1.6548561E1,-5.0964504E-1,2.90965E-1],"categories":[],"categories_nodes":[],"categories_segments":[],"categories_sizes":[],"default_left":[1,1,0,0,0],"id":6,"left_children":[1,3,-1,-1,-1],"loss_changes":[1.4645176E3,3.2538528E0,0E0,0E0,0E0],"parents":[2147483647,0,0,1,1],"right_children":[2,4,-1,-1,-1],"split_conditions":[5E-1,5E-1,4.9645686E0,-1.5289351E-1,8.72895E-2],"split_indices":[67,39,0,0,0],"split_type":[0,0,0,0,0],"sum_hessian":[1.8731706E2,1.8312907E2,4.187983E0,1.7851279E2,4.6162996E0],"tree_param":{"num_deleted":"0","num_feature":"131","num_nodes":"5","size_leaf_vector":"0"}},{"base_weights":[1.593061E-2,-4.4997594E-1,1.6548561E1,-5.096375E-1,1.3772093E0],"categories":[],"categories_nodes":[],"categories_segments":[],"categories_sizes":[],"default_left":[1,1,0,0,0],"id":7,"left_children":[1,3,-1,-1,-1],"loss_changes":[1.4579889E3,2.077428E1,0E0,0E0,0E0],"parents":[2147483647,0,0,1,1],"right_children":[2,4,-1,-1,-1],"split_conditions":[5E-1,5E-1,4.9645686E0,-1.5289125E-1,4.131628E-1],"split_indices":[123,72,0,0,0],"split_type":[0,0,0,0,0],"sum_hessian":[1.8731706E2,1.8312907E2,4.187983E0,1.7803688E2,5.092207E0],"tree_param":{"num_deleted":"0","num_feature":"131","num_nodes":"5","size_leaf_vector":"0"}},{"base_weights":[-1.0620357E-2,-5.096428E-1,8.989057E0,1.6754702E1,-4.1886753E-1],"categories":[],"categories_nodes":[],"categories_segments":[],"categories_sizes":[],"default_left":[1,0,1,0,0],"id":8,"left_children":[1,-1,3,-1,-1],"loss_changes":[8.5032074E2,0E0,7.3373596E2,0E0,0E0],"parents":[2147483647,0,0,2,2],"right_children":[2,-1,4,-1,-1],"split_conditions":[5E-1,-1.5289284E-1,5E-1,5.0264106E0,-1.2566027E-1],"split_indices":[90,0,6,0,0],"split_type":[0,0,0,0,0],"sum_hessian":[1.8731706E2,1.7837001E2,8.947055E0,4.4735274E0,4.4735274E0],"tree_param":{"num_deleted":"0","num_feature":"131","num_nodes":"5","size_leaf_vector":"0"}},{"base_weights":[-5.310163E-3,-4.7228742E-1,2.7585273E0,-5.088158E-1,-2.3936526E-1,-3.615705E-1,1.6474712E1,9.030343E-2,-4.759968E-1,-4.851686E-1,1.236936E-1,-4.220145E-1,5.4820275E-1,2.5276313E0,-4.099512E-1],"categories":[],"categories_nodes":[],"categories_segments":[],"categories_sizes":[],"default_left":[1,1,1,0,1,1,0,1,0,0,0,0,1,0,0],"id":9,"left_children":[1,3,5,-1,7,9,-1,11,-1,-1,-1,-1,13,-1,-1],"loss_changes":[2.4435408E2,1.2561417E0,1.1770759E3,0E0,1.9030191E0,1.4558411E0,0E0,2.7657871E0,0E0,0E0,0E0,0E0,1.2680929E1,0E0,0E0],"parents":[2147483647,0,0,1,1,2,2,4,4,5,5,7,7,12,12],"right_children":[2,4,6,-1,8,10,-1,12,-1,-1,-1,-1,14,-1,-1],"split_conditions":[5E-1,5E-1,5E-1,-1.5264475E-1,5E-1,5E-1,4.942414E0,5E-1,-1.4279905E-1,-1.455506E-1,3.7108082E-2,-1.2660436E-1,5E-1,7.582894E-1,-1.2298537E-1],"split_indices":[55,130,71,0,41,129,0,60,0,0,0,0,31,0,0],"split_type":[0,0,0,0,0,0,0,0,0,0,0,0,0,0,0],"sum_hessian":[1.8731706E2,1.6095181E2,2.6365257E1,1.3810826E2,2.2843544E1,2.2272455E1,4.0928016E0,9.803688E0,1.3039857E1,1.7751337E1,4.521118E0,4.6638904E0,5.1397977E0,1.1421772E0,3.9976203E0],"tree_param":{"num_deleted":"0","num_feature":"131","num_nodes":"15","size_leaf_vector":"0"}},{"base_weights":[-2.1240743E-2,-5.0971377E-1,1.6688421E1],"categories":[],"categories_nodes":[],"categories_segments":[],"categories_sizes":[],"default_left":[1,0,0],"id":10,"left_children":[1,-1,-1],"loss_changes":[1.5455914E3,0E0,0E0],"parents":[2147483647,0,0],"right_children":[2,-1,-1],"split_conditions":[5E-1,-1.5291414E-1,5.0065265E0],"split_indices":[22,0,0],"split_type":[0,0,0],"sum_hessian":[1.8731706E2,1.8293872E2,4.378346E0],"tree_param":{"num_deleted":"0","num_feature":"131","num_nodes":"3","size_leaf_vector":"0"}},{"base_weights":[1.593061E-2,-5.097087E-1,1.691074E1],"categories":[],"categories_nodes":[],"categories_segments":[],"categories_sizes":[],"default_left":[1,0,0],"id":11,"left_children":[1,-1,-1],"loss_changes":[1.6809834E3,0E0,0E0],"parents":[2147483647,0,0],"right_children":[2,-1,-1],"split_conditions":[5E-1,-1.5291262E-1,5.073222E0],"split_indices":[75,0,0],"split_type":[0,0,0],"sum_hessian":[1.8731706E2,1.8260559E2,4.711481E0],"tree_param":{"num_deleted":"0","num_feature":"131","num_nodes":"3","size_leaf_vector":"0"}},{"base_weights":[-3.7171323E-2,-5.097159E-1,1.658448E1],"categories":[],"categories_nodes":[],"categories_segments":[],"categories_sizes":[],"default_left":[1,0,0],"id":12,"left_children":[1,-1,-1],"loss_changes":[1.4875844E3,0E0,0E0],"parents":[2147483647,0,0],"right_children":[2,-1,-1],"split_conditions":[5E-1,-1.5291478E-1,4.975344E0],"split_indices":[48,0,0],"split_type":[0,0,0],"sum_hessian":[1.8731706E2,1.830815E2,4.235574E0],"tree_param":{"num_deleted":"0","num_feature":"131","num_nodes":"3","size_leaf_vector":"0"}},{"base_weights":[-5.310163E-3,-4.8797372E-1,1.6654392E1,-5.0965035E-1,3.653513E-1],"categories":[],"categories_nodes":[],"categories_segments":[],"categories_sizes":[],"default_left":[1,1,0,0,0],"id":13,"left_children":[1,3,-1,-1,-1],"loss_changes":[1.5223903E3,3.5894318E0,0E0,0E0,0E0],"parents":[2147483647,0,0,1,1],"right_children":[2,4,-1,-1,-1],"split_conditions":[5E-1,5E-1,4.996318E0,-1.5289511E-1,1.09605394E-1],"split_indices":[77,23,0,0,0],"split_type":[0,0,0,0,0],"sum_hessian":[1.8731706E2,1.8298631E2,4.330755E0,1.7884592E2,4.1403923E0],"tree_param":{"num_deleted":"0","num_feature":"131","num_nodes":"5","size_leaf_vector":"0"}},{"base_weights":[2.1240804E-2,-4.5537737E-1,1.6619751E1,-5.0964355E-1,1.359284E0,4.0882583E0,-3.9417663E-1],"categories":[],"categories_nodes":[],"categories_segments":[],"categories_sizes":[],"default_left":[1,1,0,0,1,0,0],"id":14,"left_children":[1,3,-1,-1,5,-1,-1],"loss_changes":[1.4973732E3,1.8815437E1,0E0,0E0,2.848633E1,0E0,0E0],"parents":[2147483647,0,0,1,1,4,4],"right_children":[2,4,-1,-1,6,-1,-1],"split_conditions":[5E-1,5E-1,4.9859257E0,-1.5289307E-1,5E-1,1.2264775E0,-1.1825299E-1],"split_indices":[104,17,0,0,43,0,0],"split_type":[0,0,0,0,0,0,0],"sum_hessian":[1.8731706E2,1.830339E2,4.2831645E0,1.784176E2,4.6162996E0,1.2849494E0,3.3313503E0],"tree_param":{"num_deleted":"0","num_feature":"131","num_nodes":"7","size_leaf_vector":"0"}},{"base_weights":[1.593061E-2,-4.4997594E-1,1.6548561E1,-5.09328E-1,-2.3812503E-2,-4.7842252E-1,6.969565E-1,1.5726755E0,-4.099512E-1,4.983812E0,-3.9672086E-1],"categories":[],"categories_nodes":[],"categories_segments":[],"categories_sizes":[],"default_left":[1,1,0,0,1,0,1,1,0,0,0],"id":15,"left_children":[1,3,-1,-1,5,-1,7,9,-1,-1,-1],"loss_changes":[1.4579889E3,4.645176E0,0E0,0E0,8.052662E0,0E0,9.871615E0,3.906739E1,0E0,0E0,0E0],"parents":[2147483647,0,0,1,1,4,4,6,6,7,7],"right_children":[2,4,-1,-1,6,-1,8,10,-1,-1,-1],"split_conditions":[5E-1,5E-1,4.9645686E0,-1.5279841E-1,5E-1,-1.4352676E-1,5E-1,5E-1,-1.2298537E-1,1.4951437E0,-1.1901626E-1],"split_indices":[73,55,0,0,100,0,63,17,0,0,0],"split_type":[0,0,0,0,0,0,0,0,0,0,0],"sum_hessian":[1.8731706E2,1.8312907E2,4.187983E0,1.6057108E2,2.2558E1,1.4039262E1,8.518739E0,4.521118E0,3.9976203E0,1.0945865E0,3.4265318E0],"tree_param":{"num_deleted":"0","num_feature":"131","num_nodes":"11","size_leaf_vector":"0"}},{"base_weights":[1.593061E-2,-4.4997594E-1,1.6548561E1,-5.096466E-1,1.5726755E0],"categories":[],"categories_nodes":[],"categories_segments":[],"categories_sizes":[],"default_left":[1,1,0,0,0],"id":16,"left_children":[1,3,-1,-1,-1],"loss_changes":[1.4579889E3,2.3024582E1,0E0,0E0,0E0],"parents":[2147483647,0,0,1,1],"right_children":[2,4,-1,-1,-1],"split_conditions":[5E-1,5E-1,4.9645686E0,-1.5289399E-1,4.7180265E-1],"split_indices":[118,2,0,0,0],"split_type":[0,0,0,0,0],"sum_hessian":[1.8731706E2,1.8312907E2,4.187983E0,1.7860796E2,4.521118E0],"tree_param":{"num_deleted":"0","num_feature":"131","num_nodes":"5","size_leaf_vector":"0"}},{"base_weights":[3.186119E-2,-4.6619704E-1,1.6754702E1,-5.094249E-1,-4.4272084E-2,8.527813E-1,-4.7291026E-1,3.551548E0,-4.1279945E-1],"categories":[],"categories_nodes":[],"categories_segments":[],"categories_sizes":[],"default_left":[1,1,0,0,1,1,0,0,0],"id":17,"left_children":[1,3,-1,-1,5,7,-1,-1,-1],"loss_changes":[1.5762942E3,3.330555E0,0E0,0E0,7.3938007E0,2.2761692E1,0E0,0E0,0E0],"parents":[2147483647,0,0,1,1,4,4,5,5],"right_children":[2,4,-1,-1,6,8,-1,-1,-1],"split_conditions":[5E-1,5E-1,5.0264106E0,-1.5282749E-1,5E-1,5E-1,-1.4187308E-1,1.0654645E0,-1.2383984E-1],"split_indices":[29,31,0,0,71,92,0,0,0],"split_type":[0,0,0,0,0,0,0,0,0],"sum_hessian":[1.8731706E2,1.8284354E2,4.4735274E0,1.6566328E2,1.7180248E1,5.234979E0,1.1945271E1,1.0945865E0,4.1403923E0],"tree_param":{"num_deleted":"0","num_feature":"131","num_nodes":"9","size_leaf_vector":"0"}},{"base_weights":[1.0620417E-2,-4.4535995E-1,4.390954E0,-5.092456E-1,2.554264E-1,1.4938453E1,-4.7362483E-1,-4.6218094E-1,1.4701364E0,4.8617053E0,-4.0262723E-1],"categories":[],"categories_nodes":[],"categories_segments":[],"categories_sizes":[],"default_left":[1,1,1,0,1,0,0,0,1,0,0],"id":18,"left_children":[1,3,5,-1,7,-1,-1,-1,9,-1,-1],"loss_changes":[3.780899E2,7.806816E0,9.227953E2,0E0,1.3747481E1,0E0,0E0,0E0,3.8839092E1,0E0,0E0],"parents":[2147483647,0,0,1,1,2,2,4,4,8,8],"right_children":[2,4,6,-1,8,-1,-1,-1,10,-1,-1],"split_conditions":[5E-1,5E-1,5E-1,-1.5277368E-1,5E-1,4.481536E0,-1.4208746E-1,-1.3865429E-1,5E-1,1.4585116E0,-1.2078817E-1],"split_indices":[14,18,45,0,121,0,0,0,2,0,0],"split_type":[0,0,0,0,0,0,0,0,0,0,0],"sum_hessian":[1.8731706E2,1.7046996E2,1.6847115E1,1.5647829E2,1.3991671E1,4.6638904E0,1.2183224E1,9.185008E0,4.8066626E0,1.1421772E0,3.6644852E0],"tree_param":{"num_deleted":"0","num_feature":"131","num_nodes":"11","size_leaf_vector":"0"}},{"base_weights":[3.038517E-8,-5.0971085E-1,1.6818716E1],"categories":[],"categories_nodes":[],"categories_segments":[],"categories_sizes":[],"default_left":[1,0,0],"id":19,"left_children":[1,-1,-1],"loss_changes":[1.6229552E3,0E0,0E0],"parents":[2147483647,0,0],"right_children":[2,-1,-1],"split_conditions":[5E-1,-1.5291326E-1,5.045615E0],"split_indices":[87,0,0],"split_type":[0,0,0],"sum_hessian":[1.8731706E2,1.8274835E2,4.568709E0],"tree_param":{"num_deleted":"0","num_feature":"131","num_nodes":"3","size_leaf_vector":"0"}},{"base_weights":[5.310224E-3,-4.873958E-1,9.2626705E0,-5.091358E-1,-3.536777E-1,1.6279993E1,-4.099512E-1,1.459075E-1,-4.8978138E-1,1.4623797E0,-4.204679E-1],"categories":[],"categories_nodes":[],"categories_segments":[],"categories_sizes":[],"default_left":[1,1,1,0,1,0,0,1,0,0,0],"id":20,"left_children":[1,3,5,-1,7,-1,-1,9,-1,-1,-1],"loss_changes":[8.634583E2,3.4246826E-1,6.5599713E2,0E0,2.0033653E0,0E0,0E0,5.725091E0,0E0,0E0,0E0],"parents":[2147483647,0,0,1,1,2,2,4,4,7,7],"right_children":[2,4,6,-1,8,-1,-1,10,-1,-1,-1],"split_conditions":[5E-1,5E-1,5E-1,-1.5274075E-1,5E-1,4.883998E0,-1.2298537E-1,5E-1,-1.4693442E-1,4.3871394E-1,-1.2614039E-1],"split_indices":[39,129,45,0,0,0,0,11,0,0,0],"split_type":[0,0,0,0,0,0,0,0,0,0,0],"sum_hessian":[1.8731706E2,1.7875073E2,8.566329E0,1.5133849E2,2.7412254E1,4.568709E0,3.9976203E0,5.853658E0,2.1558596E1,1.2849494E0,4.568709E0],"tree_param":{"num_deleted":"0","num_feature":"131","num_nodes":"11","size_leaf_vector":"0"}},{"base_weights":[2.6550997E-2,-4.793106E-1,3.6430678E0,-5.091326E-1,-1.4244637E-1,6.029072E0,-4.583883E-1,-4.6072954E-1,4.0670574E-1,8.832441E0,-4.1804627E-1,1.5580895E1,-4.1635978E-1],"categories":[],"categories_nodes":[],"categories_segments":[],"categories_sizes":[],"default_left":[1,1,1,0,1,1,0,0,0,1,0,0,0],"id":21,"left_children":[1,3,5,-1,7,9,-1,-1,-1,11,-1,-1,-1],"loss_changes":[3.4626413E2,1.596035E0,2.3004431E2,0E0,2.7910771E0,2.703459E2,0E0,0E0,0E0,6.5109686E2,0E0,0E0,0E0],"parents":[2147483647,0,0,1,1,2,2,4,4,5,5,9,9],"right_children":[2,4,6,-1,8,10,-1,-1,-1,12,-1,-1,-1],"split_conditions":[5E-1,5E-1,5E-1,-1.527398E-1,5E-1,5E-1,-1.375165E-1,-1.3821886E-1,1.2201173E-1,5E-1,-1.2541388E-1,4.6742687E0,-1.2490794E-1],"split_indices":[28,129,55,0,0,64,0,0,0,21,0,0,0],"split_type":[0,0,0,0,0,0,0,0,0,0,0,0,0],"sum_hessian":[1.8731706E2,1.650922E2,2.2224865E1,1.5119571E2,1.3896489E1,1.3753717E1,8.471148E0,8.899465E0,4.9970255E0,9.327781E0,4.4259367E0,4.9970255E0,4.330755E0],"tree_param":{"num_deleted":"0","num_feature":"131","num_nodes":"13","size_leaf_vector":"0"}},{"base_weights":[3.038517E-8,-5.0971085E-1,1.6818716E1],"categories":[],"categories_nodes":[],"categories_segments":[],"categories_sizes":[],"default_left":[1,0,0],"id":22,"left_children":[1,-1,-1],"loss_changes":[1.6229552E3,0E0,0E0],"parents":[2147483647,0,0],"right_children":[2,-1,-1],"split_conditions":[5E-1,-1.5291326E-1,5.045615E0],"split_indices":[21,0,0],"split_type":[0,0,0],"sum_hessian":[1.8731706E2,1.8274835E2,4.568709E0],"tree_param":{"num_deleted":"0","num_feature":"131","num_nodes":"3","size_leaf_vector":"0"}},{"base_weights":[1.0620417E-2,-4.770942E-1,1.6688421E1,-5.095697E-1,1.3601093E-1,-4.242393E-1,7.3139423E-1],"categories":[],"categories_nodes":[],"categories_segments":[],"categories_sizes":[],"default_left":[1,1,0,0,1,0,0],"id":23,"left_children":[1,3,-1,-1,5,-1,-1],"loss_changes":[1.5397343E3,3.7316933E0,0E0,0E0,3.6600113E0,0E0,0E0],"parents":[2147483647,0,0,1,1,4,4],"right_children":[2,4,-1,-1,6,-1,-1],"split_conditions":[5E-1,5E-1,5.0065265E0,-1.5287092E-1,5E-1,-1.272718E-1,2.1941827E-1],"split_indices":[58,61,0,0,44,0,0],"split_type":[0,0,0,0,0,0,0],"sum_hessian":[1.8731706E2,1.8293872E2,4.378346E0,1.7389648E2,9.042236E0,4.8066626E0,4.235574E0],"tree_param":{"num_deleted":"0","num_feature":"131","num_nodes":"7","size_leaf_vector":"0"}},{"base_weights":[-5.310163E-3,-5.096466E-1,9.32492E0,-4.1371402E-1,1.6786985E1],"categories":[],"categories_nodes":[],"categories_segments":[],"categories_sizes":[],"default_left":[1,0,1,0,0],"id":24,"left_children":[1,-1,3,-1,-1],"loss_changes":[8.908924E2,0E0,7.125085E2,0E0,0E0],"parents":[2147483647,0,0,2,2],"right_children":[2,-1,4,-1,-1],"split_conditions":[5E-1,-1.5289399E-1,5E-1,-1.2411421E-1,5.0360956E0],"split_indices":[70,0,1,0,0],"split_type":[0,0,0,0,0],"sum_hessian":[1.8731706E2,1.7860796E2,8.709102E0,4.187983E0,4.521118E0],"tree_param":{"num_deleted":"0","num_feature":"131","num_nodes":"5","size_leaf_vector":"0"}},{"base_weights":[1.593061E-2,-5.097087E-1,1.691074E1],"categories":[],"categories_nodes":[],"categories_segments":[],"categories_sizes":[],"default_left":[1,0,0],"id":25,"left_children":[1,-1,-1],"loss_changes":[1.6809834E3,0E0,0E0],"parents":[2147483647,0,0],"right_children":[2,-1,-1],"split_conditions":[5E-1,-1.5291262E-1,5.073222E0],"split_indices":[79,0,0],"split_type":[0,0,0],"sum_hessian":[1.8731706E2,1.8260559E2,4.711481E0],"tree_param":{"num_deleted":"0","num_feature":"131","num_nodes":"3","size_leaf_vector":"0"}},{"base_weights":[5.310224E-3,-5.0971013E-1,1.684991E1],"categories":[],"categories_nodes":[],"categories_segments":[],"categories_sizes":[],"default_left":[1,0,0],"id":26,"left_children":[1,-1,-1],"loss_changes":[1.642298E3,0E0,0E0],"parents":[2147483647,0,0],"right_children":[2,-1,-1],"split_conditions":[5E-1,-1.5291305E-1,5.0549736E0],"split_indices":[15,0,0],"split_type":[0,0,0],"sum_hessian":[1.8731706E2,1.8270076E2,4.6162996E0],"tree_param":{"num_deleted":"0","num_feature":"131","num_nodes":"3","size_leaf_vector":"0"}},{"base_weights":[5.310224E-3,-4.9339408E-1,1.6754702E1,-5.092515E-1,-3.8279036E-1,-4.8509908E-1,-1.3787195E-1,1.708136E-1,-4.1461197E-1],"categories":[],"categories_nodes":[],"categories_segments":[],"categories_sizes":[],"default_left":[1,1,0,0,1,0,1,0,0],"id":27,"left_children":[1,3,-1,-1,5,-1,7,-1,-1],"loss_changes":[1.5812778E3,1.2750626E-1,0E0,0E0,6.116626E-1,0E0,8.717693E-1,0E0,0E0],"parents":[2147483647,0,0,1,1,4,4,6,6],"right_children":[2,4,-1,-1,6,-1,8,-1,-1],"split_conditions":[5E-1,5E-1,5.0264106E0,-1.5277545E-1,5E-1,-1.4552973E-1,5E-1,5.1244084E-2,-1.2438359E-1],"split_indices":[89,100,0,0,45,0,6,0,0],"split_type":[0,0,0,0,0,0,0,0,0],"sum_hessian":[1.8731706E2,1.8284354E2,4.4735274E0,1.5676382E2,2.6079714E1,1.7703747E1,8.375966E0,4.1403923E0,4.235574E0],"tree_param":{"num_deleted":"0","num_feature":"131","num_nodes":"9","size_leaf_vector":"0"}},{"base_weights":[3.7171382E-2,-4.7442448E-1,4.823216E0,-5.0915354E-1,-1.6781586E-1,-1.15834065E-1,1.6688421E1,-4.7730893E-1,7.091843E-1,-4.591919E-1,5.3090876E-1],"categories":[],"categories_nodes":[],"categories_segments":[],"categories_sizes":[],"default_left":[1,1,1,0,1,1,0,0,0,0,0],"id":28,"left_children":[1,3,5,-1,7,9,-1,-1,-1,-1,-1],"loss_changes":[4.6338644E2,1.7358475E0,1.0729253E3,0E0,5.4668427E0,3.3298337E0,0E0,0E0,0E0,0E0,0E0],"parents":[2147483647,0,0,1,1,2,2,4,4,5,5],"right_children":[2,4,6,-1,8,10,-1,-1,-1,-1,-1],"split_conditions":[5E-1,5E-1,5E-1,-1.5274607E-1,5E-1,5E-1,5.0065265E0,-1.4319268E-1,2.127553E-1,-1.3775757E-1,1.5927264E-1],"split_indices":[126,28,55,0,45,121,0,0,0,0,0],"split_type":[0,0,0,0,0,0,0,0,0,0,0],"sum_hessian":[1.8731706E2,1.7004164E2,1.727543E1,1.5214752E2,1.789411E1,1.2897084E1,4.378346E0,1.35633545E1,4.330755E0,8.61392E0,4.2831645E0],"tree_param":{"num_deleted":"0","num_feature":"131","num_nodes":"11","size_leaf_vector":"0"}},{"base_weights":[3.038517E-8,-5.094886E-1,4.532042E0,-2.7365395E-1,1.6721851E1,-4.6194473E-1,1.1825663E-1],"categories":[],"categories_nodes":[],"categories_segments":[],"categories_sizes":[],"default_left":[1,0,1,1,0,0,0],"id":29,"left_children":[1,-1,3,5,-1,-1,-1],"loss_changes":[4.3713763E2,0E0,1.1253423E3,1.1398394E0,0E0,0E0,0E0],"parents":[2147483647,0,0,2,2,3,3],"right_children":[2,-1,4,6,-1,-1,-1],"split_conditions":[5E-1,-1.5284657E-1,5E-1,5E-1,5.016556E0,-1.3858342E-1,3.547699E-2],"split_indices":[68,0,109,31,0,0,0],"split_type":[0,0,0,0,0,0,0],"sum_hessian":[1.8731706E2,1.69185E2,1.8132063E1,1.3706127E1,4.4259367E0,9.137418E0,4.568709E0],"tree_param":{"num_deleted":"0","num_feature":"131","num_nodes":"7","size_leaf_vector":"0"}},{"base_weights":[-3.7171323E-2,-4.8801172E-1,1.6436743E1,-5.0965637E-1,3.8191256E-1],"categories":[],"categories_nodes":[],"categories_segments":[],"categories_sizes":[],"default_left":[1,1,0,0,0],"id":30,"left_children":[1,3,-1,-1,-1],"loss_changes":[1.406672E3,3.6643372E0,0E0,0E0,0E0],"parents":[2147483647,0,0,1,1],"right_children":[2,4,-1,-1,-1],"split_conditions":[5E-1,5E-1,4.931023E0,-1.5289691E-1,1.1457377E-1],"split_indices":[120,49,0,0,0],"split_type":[0,0,0,0,0],"sum_hessian":[1.8731706E2,1.8327185E2,4.045211E0,1.7922664E2,4.045211E0],"tree_param":{"num_deleted":"0","num_feature":"131","num_nodes":"5","size_leaf_vector":"0"}},{"base_weights":[3.186119E-2,-4.933693E-1,1.691074E1,-5.096413E-1,1.4641227E-1],"categories":[],"categories_nodes":[],"categories_segments":[],"categories_sizes":[],"default_left":[1,1,0,0,0],"id":31,"left_children":[1,3,-1,-1,-1],"loss_changes":[1.6778308E3,1.986042E0,0E0,0E0,0E0],"parents":[2147483647,0,0,1,1],"right_children":[2,4,-1,-1,-1],"split_conditions":[5E-1,5E-1,5.073222E0,-1.528924E-1,4.3923683E-2],"split_indices":[57,78,0,0,0],"split_type":[0,0,0,0,0],"sum_hessian":[1.8731706E2,1.8260559E2,4.711481E0,1.7827483E2,4.330755E0],"tree_param":{"num_deleted":"0","num_feature":"131","num_nodes":"5","size_leaf_vector":"0"}},{"base_weights":[-5.310163E-3,-4.9340397E-1,1.6688421E1],"categories":[],"categories_nodes":[],"categories_segments":[],"categories_sizes":[],"default_left":[1,0,0],"id":32,"left_children":[1,-1,-1],"loss_changes":[1.5426616E3,0E0,0E0],"parents":[2147483647,0,0],"right_children":[2,-1,-1],"split_conditions":[5E-1,-1.4802119E-1,5.0065265E0],"split_indices":[4,0,0],"split_type":[0,0,0],"sum_hessian":[1.8731706E2,1.8293872E2,4.378346E0],"tree_param":{"num_deleted":"0","num_feature":"131","num_nodes":"3","size_leaf_vector":"0"}},{"base_weights":[-3.186113E-2,-4.9342865E-1,1.6511978E1,-5.096526E-1,1.6454539E-1],"categories":[],"categories_nodes":[],"categories_segments":[],"categories_sizes":[],"default_left":[1,1,0,0,0],"id":33,"left_children":[1,3,-1,-1,-1],"loss_changes":[1.4461552E3,2.0499344E0,0E0,0E0,0E0],"parents":[2147483647,0,0,1,1],"right_children":[2,4,-1,-1,-1],"split_conditions":[5E-1,5E-1,4.9535937E0,-1.528958E-1,4.9363617E-2],"split_indices":[80,49,0,0,0],"split_type":[0,0,0,0,0],"sum_hessian":[1.8731706E2,1.8317667E2,4.1403923E0,1.789887E2,4.187983E0],"tree_param":{"num_deleted":"0","num_feature":"131","num_nodes":"5","size_leaf_vector":"0"}},{"base_weights":[-1.0620357E-2,-5.097123E-1,1.6754702E1],"categories":[],"categories_nodes":[],"categories_segments":[],"categories_sizes":[],"default_left":[1,0,0],"id":34,"left_children":[1,-1,-1],"loss_changes":[1.5842714E3,0E0,0E0],"parents":[2147483647,0,0],"right_children":[2,-1,-1],"split_conditions":[5E-1,-1.5291369E-1,5.0264106E0],"split_indices":[94,0,0],"split_type":[0,0,0],"sum_hessian":[1.8731706E2,1.8284354E2,4.4735274E0],"tree_param":{"num_deleted":"0","num_feature":"131","num_nodes":"3","size_leaf_vector":"0"}},{"base_weights":[-2.1240743E-2,-4.9341878E-1,1.658448E1,-5.093271E-1,-3.6339992E-1,-4.8584512E-1,1.4641227E-1],"categories":[],"categories_nodes":[],"categories_segments":[],"categories_sizes":[],"default_left":[1,1,0,0,1,0,0],"id":35,"left_children":[1,3,-1,-1,5,-1,-1],"loss_changes":[1.4847502E3,1.9566345E-1,0E0,0E0,1.5417197E0,0E0,0E0],"parents":[2147483647,0,0,1,1,4,4],"right_children":[2,4,-1,-1,6,-1,-1],"split_conditions":[5E-1,5E-1,4.975344E0,-1.5279815E-1,5E-1,-1.4575355E-1,4.3923683E-2],"split_indices":[50,56,0,0,100,0,0],"split_type":[0,0,0,0,0,0,0],"sum_hessian":[1.8731706E2,1.830815E2,4.235574E0,1.6052348E2,2.2558E1,1.8227245E1,4.330755E0],"tree_param":{"num_deleted":"0","num_feature":"131","num_nodes":"7","size_leaf_vector":"0"}},{"base_weights":[3.038517E-8,-5.0971085E-1,1.6818716E1],"categories":[],"categories_nodes":[],"categories_segments":[],"categories_sizes":[],"default_left":[1,0,0],"id":36,"left_children":[1,-1,-1],"loss_changes":[1.6229552E3,0E0,0E0],"parents":[2147483647,0,0],"right_children":[2,-1,-1],"split_conditions":[5E-1,-1.5291326E-1,5.045615E0],"split_indices":[11,0,0],"split_type":[0,0,0],"sum_hessian":[1.8731706E2,1.8274835E2,4.568709E0],"tree_param":{"num_deleted":"0","num_feature":"131","num_nodes":"3","size_leaf_vector":"0"}},{"base_weights":[-4.2481516E-2,-4.8801804E-1,1.6398048E1,-5.096481E-1,2.90965E-1],"categories":[],"categories_nodes":[],"categories_segments":[],"categories_sizes":[],"default_left":[1,1,0,0,0],"id":37,"left_children":[1,3,-1,-1,-1],"loss_changes":[1.3873981E3,3.2539673E0,0E0,0E0,0E0],"parents":[2147483647,0,0,1,1],"right_children":[2,4,-1,-1,-1],"split_conditions":[5E-1,5E-1,4.9194145E0,-1.5289444E-1,8.72895E-2],"split_indices":[7,23,0,0,0],"split_type":[0,0,0,0,0],"sum_hessian":[1.8731706E2,1.8331944E2,3.9976203E0,1.7870314E2,4.6162996E0],"tree_param":{"num_deleted":"0","num_feature":"131","num_nodes":"5","size_leaf_vector":"0"}},{"base_weights":[3.038517E-8,-4.8796737E-1,1.6688421E1,-5.096458E-1,3.265126E-1],"categories":[],"categories_nodes":[],"categories_segments":[],"categories_sizes":[],"default_left":[1,1,0,0,0],"id":38,"left_children":[1,3,-1,-1,-1],"loss_changes":[1.5416857E3,3.4141464E0,0E0,0E0,0E0],"parents":[2147483647,0,0,1,1],"right_children":[2,4,-1,-1,-1],"split_conditions":[5E-1,5E-1,5.0065265E0,-1.5289375E-1,9.795379E-2],"split_indices":[24,17,0,0,0],"split_type":[0,0,0,0,0],"sum_hessian":[1.8731706E2,1.8293872E2,4.378346E0,1.7856038E2,4.378346E0],"tree_param":{"num_deleted":"0","num_feature":"131","num_nodes":"5","size_leaf_vector":"0"}},{"base_weights":[3.038517E-8,-4.8253852E-1,1.6654392E1,-5.096473E-1,5.2159363E-1],"categories":[],"categories_nodes":[],"categories_segments":[],"categories_sizes":[],"default_left":[1,1,0,0,0],"id":39,"left_children":[1,3,-1,-1,-1],"loss_changes":[1.521425E3,5.274082E0,0E0,0E0,0E0],"parents":[2147483647,0,0,1,1],"right_children":[2,4,-1,-1,-1],"split_conditions":[5E-1,5E-1,4.996318E0,-1.528942E-1,1.5647809E-1],"split_indices":[115,74,0,0,0],"split_type":[0,0,0,0,0],"sum_hessian":[1.8731706E2,1.8298631E2,4.330755E0,1.7865555E2,4.330755E0],"tree_param":{"num_deleted":"0","num_feature":"131","num_nodes":"5","size_leaf_vector":"0"}},{"base_weights":[1.0620417E-2,-5.095665E-1,6.229877E0,1.688058E1,-4.6097723E-1],"categories":[],"categories_nodes":[],"categories_segments":[],"categories_sizes":[],"default_left":[1,0,1,0,0],"id":40,"left_children":[1,-1,3,-1,-1],"loss_changes":[6.124134E2,0E0,1.0489912E3,0E0,0E0],"parents":[2147483647,0,0,2,2],"right_children":[2,-1,4,-1,-1],"split_conditions":[5E-1,-1.5286995E-1,5E-1,5.0641747E0,-1.3829318E-1],"split_indices":[64,0,63,0,0],"split_type":[0,0,0,0,0],"sum_hessian":[1.8731706E2,1.7370612E2,1.3610946E1,4.6638904E0,8.947055E0],"tree_param":{"num_deleted":"0","num_feature":"131","num_nodes":"5","size_leaf_vector":"0"}},{"base_weights":[1.6791807E-2,-4.4717515E-1,7.865759E-1,-4.9270403E-1,4.0405878E-1],"categories":[],"categories_nodes":[],"categories_segments":[],"categories_sizes":[],"default_left":[1,1,0,0,0],"id":41,"left_children":[1,3,-1,-1,-1],"loss_changes":[2.617374E1,1.9720716E0,0E0,0E0,0E0],"parents":[2147483647,0,0,1,1],"right_children":[2,4,-1,-1,-1],"split_conditions":[5E-1,5E-1,2.3597278E-1,-1.4781122E-1,1.2121764E-1],"split_indices":[119,103,0,0,0],"split_type":[0,0,0,0,0],"sum_hessian":[7.129928E1,4.474781E1,2.6551466E1,4.2875755E1,1.8720535E0],"tree_param":{"num_deleted":"0","num_feature":"131","num_nodes":"5","size_leaf_vector":"0"}},{"base_weights":[3.8894016E-2,-4.2550218E-1,8.6116284E-1,-4.92733E-1,4.588213E-1],"categories":[],"categories_nodes":[],"categories_segments":[],"categories_sizes":[],"default_left":[1,1,0,0,0],"id":42,"left_children":[1,3,-1,-1,-1],"loss_changes":[2.7945879E1,3.0100403E0,0E0,0E0,0E0],"parents":[2147483647,0,0,1,1],"right_children":[2,4,-1,-1,-1],"split_conditions":[5E-1,5E-1,2.5834885E-1,-1.478199E-1,1.3764639E-1],"split_indices":[38,69,0,0,0],"split_type":[0,0,0,0,0],"sum_hessian":[7.122427E1,4.5825653E1,2.5398619E1,4.2999428E1,2.826225E0],"tree_param":{"num_deleted":"0","num_feature":"131","num_nodes":"5","size_leaf_vector":"0"}},{"base_weights":[4.1177813E-2,-4.2066398E-1,8.5461736E-1,-4.9273905E-1,4.643273E-1],"categories":[],"categories_nodes":[],"categories_segments":[],"categories_sizes":[],"default_left":[1,1,0,0,0],"id":43,"left_children":[1,3,-1,-1,-1],"loss_changes":[2.7683027E1,3.230651E0,0E0,0E0,0E0],"parents":[2147483647,0,0,1,1],"right_children":[2,4,-1,-1,-1],"split_conditions":[5E-1,5E-1,2.563852E-1,-1.4782172E-1,1.392982E-1],"split_indices":[95,8,0,0,0],"split_type":[0,0,0,0,0],"sum_hessian":[7.173076E1,4.606153E1,2.566923E1,4.3002563E1,3.0589685E0],"tree_param":{"num_deleted":"0","num_feature":"131","num_nodes":"5","size_leaf_vector":"0"}},{"base_weights":[-6.6811824E-3,-4.5645025E-1,7.1799874E-1,-4.92729E-1,3.662146E-1],"categories":[],"categories_nodes":[],"categories_segments":[],"categories_sizes":[],"default_left":[1,1,0,0,0],"id":44,"left_children":[1,3,-1,-1,-1],"loss_changes":[2.3998405E1,1.5360947E0,0E0,0E0,0E0],"parents":[2147483647,0,0,1,1],"right_children":[2,4,-1,-1,-1],"split_conditions":[5E-1,5E-1,2.1539964E-1,-1.4781871E-1,1.09864384E-1],"split_indices":[42,33,0,0,0],"split_type":[0,0,0,0,0],"sum_hessian":[7.162311E1,4.442258E1,2.7200523E1,4.2930447E1,1.4921366E0],"tree_param":{"num_deleted":"0","num_feature":"131","num_nodes":"5","size_leaf_vector":"0"}},{"base_weights":[3.9590344E-2,-4.1613516E-1,8.9345264E-1,-4.9269724E-1,4.7862384E-1],"categories":[],"categories_nodes":[],"categories_segments":[],"categories_sizes":[],"default_left":[1,1,0,0,0],"id":45,"left_children":[1,3,-1,-1,-1],"loss_changes":[2.8140783E1,3.4699926E0,0E0,0E0,0E0],"parents":[2147483647,0,0,1,1],"right_children":[2,4,-1,-1,-1],"split_conditions":[5E-1,5E-1,2.680358E-1,-1.4780918E-1,1.4358716E-1],"split_indices":[96,122,0,0,0],"split_type":[0,0,0,0,0],"sum_hessian":[7.03623E1,4.6211063E1,2.4151237E1,4.2982517E1,3.2285447E0],"tree_param":{"num_deleted":"0","num_feature":"131","num_nodes":"5","size_leaf_vector":"0"}},{"base_weights":[-9.07713E-3,-4.6124476E-1,6.899208E-1,-4.9250385E-1,3.433343E-1,1.5368752E0,5.9667414E-1],"categories":[],"categories_nodes":[],"categories_segments":[],"categories_sizes":[],"default_left":[1,1,1,0,0,0,0],"id":46,"left_children":[1,3,5,-1,-1,-1,-1],"loss_changes":[2.3039902E1,1.2820282E0,1.3447084E0,0E0,0E0,0E0,0E0],"parents":[2147483647,0,0,1,1,2,2],"right_children":[2,4,6,-1,-1,-1,-1],"split_conditions":[5E-1,5E-1,5E-1,-1.4775117E-1,1.0300029E-1,4.6106258E-1,1.7900226E-1],"split_indices":[111,66,66,0,0,0,0],"split_type":[0,0,0,0,0,0,0],"sum_hessian":[7.088944E1,4.325123E1,2.7638212E1,4.2007065E1,1.2441622E0,1.2056377E0,2.6432573E1],"tree_param":{"num_deleted":"0","num_feature":"131","num_nodes":"7","size_leaf_vector":"0"}},{"base_weights":[8.8738445E-3,-4.5326304E-1,7.177844E-1,-4.9241948E-1,3.7773803E-1,7.693097E-1,-2.712631E-1],"categories":[],"categories_nodes":[],"categories_segments":[],"categories_sizes":[],"default_left":[1,1,1,0,0,0,0],"id":47,"left_children":[1,3,5,-1,-1,-1,-1],"loss_changes":[2.3975203E1,1.6279125E0,1.6801863E0,0E0,0E0,0E0,0E0],"parents":[2147483647,0,0,1,1,2,2],"right_children":[2,4,6,-1,-1,-1,-1],"split_conditions":[5E-1,5E-1,5E-1,-1.4772585E-1,1.13321416E-1,2.3079292E-1,-8.137893E-2],"split_indices":[39,67,60,0,0,0,0],"split_type":[0,0,0,0,0,0,0],"sum_hessian":[7.118824E1,4.331314E1,2.7875097E1,4.1753185E1,1.559955E0,2.6705997E1,1.1691E0],"tree_param":{"num_deleted":"0","num_feature":"131","num_nodes":"7","size_leaf_vector":"0"}},{"base_weights":[8.1029356E-2,-4.5276165E-1,8.737563E-1,-4.9223852E-1,3.7785342E-1,2.7201495E0,5.972334E-1,4.8903284E0,-2.9679433E-1],"categories":[],"categories_nodes":[],"categories_segments":[],"categories_sizes":[],"default_left":[1,1,1,0,0,1,0,0,0],"id":48,"left_children":[1,3,5,-1,-1,7,-1,-1,-1],"loss_changes":[3.1062668E1,1.6277294E0,1.3439568E1,0E0,0E0,2.4771759E1,0E0,0E0,0E0],"parents":[2147483647,0,0,1,1,2,2,5,5],"right_children":[2,4,6,-1,-1,8,-1,-1,-1],"split_conditions":[5E-1,5E-1,5E-1,-1.4767157E-1,1.1335603E-1,5E-1,1.7917003E-1,1.4670986E0,-8.90383E-2],"split_indices":[72,123,123,0,0,57,0,0,0],"split_type":[0,0,0,0,0,0,0,0,0],"sum_hessian":[7.147318E1,4.296865E1,2.8504536E1,4.140802E1,1.5606301E0,2.5618205E0,2.5942717E1,1.12885E0,1.4329705E0],"tree_param":{"num_deleted":"0","num_feature":"131","num_nodes":"9","size_leaf_vector":"0"}},{"base_weights":[-5.8788348E-2,-4.9253878E-1,5.616749E-1,-2.3202773E-2,5.920543E-1],"categories":[],"categories_nodes":[],"categories_segments":[],"categories_sizes":[],"default_left":[1,0,1,0,0],"id":49,"left_children":[1,-1,3,-1,-1],"loss_changes":[1.971251E1,0E0,5.5000305E-1,0E0,0E0],"parents":[2147483647,0,0,2,2],"right_children":[2,-1,4,-1,-1],"split_conditions":[5E-1,-1.4776164E-1,5E-1,-6.960832E-3,1.776163E-1],"split_indices":[90,0,64,0,0],"split_type":[0,0,0,0,0],"sum_hessian":[7.12184E1,4.2037327E1,2.9181076E1,1.4525322E0,2.7728544E1],"tree_param":{"num_deleted":"0","num_feature":"131","num_nodes":"5","size_leaf_vector":"0"}},{"base_weights":[5.4246817E-2,-4.3760523E-1,6.337463E-1,-4.9003664E-1,1.158126E-4,8.291311E-1,-4.1840523E-1,-3.458979E-1,3.5965955E-1,8.8594455E-1,-2.7149332E-1,3.354367E-1,9.104401E-1],"categories":[],"categories_nodes":[],"categories_segments":[],"categories_sizes":[],"default_left":[1,1,1,0,1,1,0,0,0,1,0,0,0],"id":50,"left_children":[1,3,5,-1,7,9,-1,-1,-1,11,-1,-1,-1],"loss_changes":[2.0851213E1,9.096961E-1,7.243285E0,0E0,7.762386E-1,2.0306568E0,0E0,0E0,0E0,6.4870834E-2,0E0,0E0,0E0],"parents":[2147483647,0,0,1,1,2,2,4,4,5,5,9,9],"right_children":[2,4,6,-1,8,10,-1,-1,-1,12,-1,-1,-1],"split_conditions":[5E-1,5E-1,5E-1,-1.47011E-1,5E-1,5E-1,-1.2552157E-1,-1.0376938E-1,1.0789787E-1,5E-1,-8.1447996E-2,1.0063101E-1,2.7313203E-1],"split_indices":[129,130,41,0,60,28,0,0,0,0,0,0,0],"split_type":[0,0,0,0,0,0,0,0,0,0,0,0,0],"sum_hessian":[7.118197E1,3.863513E1,3.2546833E1,3.4395615E1,4.2395186E0,2.7628231E1,4.9186034E0,2.179749E0,2.0597696E0,2.6457565E1,1.1706662E0,1.7530762E0,2.4704489E1],"tree_param":{"num_deleted":"0","num_feature":"131","num_nodes":"13","size_leaf_vector":"0"}},{"base_weights":[-5.8072828E-2,-4.9272165E-1,5.9576684E-1],"categories":[],"categories_nodes":[],"categories_segments":[],"categories_sizes":[],"default_left":[1,0,0],"id":51,"left_children":[1,-1,-1],"loss_changes":[2.0789738E1,0E0,0E0],"parents":[2147483647,0,0],"right_children":[2,-1,-1],"split_conditions":[5E-1,-1.478165E-1,1.7873006E-1],"split_indices":[22,0,0],"split_type":[0,0,0],"sum_hessian":[7.112127E1,4.286956E1,2.8251705E1],"tree_param":{"num_deleted":"0","num_feature":"131","num_nodes":"3","size_leaf_vector":"0"}},{"base_weights":[-5.477387E-2,-4.9272013E-1,5.879454E-1],"categories":[],"categories_nodes":[],"categories_segments":[],"categories_sizes":[],"default_left":[1,0,0],"id":52,"left_children":[1,-1,-1],"loss_changes":[2.0785997E1,0E0,0E0],"parents":[2147483647,0,0],"right_children":[2,-1,-1],"split_conditions":[5E-1,-1.4781605E-1,1.7638363E-1],"split_indices":[75,0,0],"split_type":[0,0,0],"sum_hessian":[7.181711E1,4.2851593E1,2.8965513E1],"tree_param":{"num_deleted":"0","num_feature":"131","num_nodes":"3","size_leaf_vector":"0"}},{"base_weights":[-6.1921243E-2,-4.9272165E-1,5.980752E-1],"categories":[],"categories_nodes":[],"categories_segments":[],"categories_sizes":[],"default_left":[1,0,0],"id":53,"left_children":[1,-1,-1],"loss_changes":[2.065466E1,0E0,0E0],"parents":[2147483647,0,0],"right_children":[2,-1,-1],"split_conditions":[5E-1,-1.478165E-1,1.7942257E-1],"split_indices":[48,0,0],"split_type":[0,0,0],"sum_hessian":[7.0607666E1,4.2875153E1,2.7732512E1],"tree_param":{"num_deleted":"0","num_feature":"131","num_nodes":"3","size_leaf_vector":"0"}},{"base_weights":[-7.6509896E-3,-4.5530602E-1,7.292737E-1,-4.927531E-1,3.7361178E-1],"categories":[],"categories_nodes":[],"categories_segments":[],"categories_sizes":[],"default_left":[1,1,0,0,0],"id":54,"left_children":[1,3,-1,-1,-1],"loss_changes":[2.4137709E1,1.5966921E0,0E0,0E0,0E0],"parents":[2147483647,0,0,1,1],"right_children":[2,4,-1,-1,-1],"split_conditions":[5E-1,5E-1,2.1878211E-1,-1.4782593E-1,1.1208354E-1],"split_indices":[12,54,0,0,0],"split_type":[0,0,0,0,0],"sum_hessian":[7.1162865E1,4.4508015E1,2.6654854E1,4.297225E1,1.5357611E0],"tree_param":{"num_deleted":"0","num_feature":"131","num_nodes":"5","size_leaf_vector":"0"}},{"base_weights":[6.6380806E-2,-4.1709363E-1,8.27097E-1,-4.9232358E-1,4.6734184E-1,2.1354678E0,5.9651655E-1,-2.8792322E-1,3.4593964E0],"categories":[],"categories_nodes":[],"categories_segments":[],"categories_sizes":[],"default_left":[1,1,1,0,0,1,0,0,0],"id":55,"left_children":[1,3,5,-1,-1,7,-1,-1,-1],"loss_changes":[2.7431759E1,3.2703967E0,7.4610767E0,0E0,0E0,1.3670891E1,0E0,0E0,0E0],"parents":[2147483647,0,0,1,1,2,2,5,5],"right_children":[2,4,6,-1,-1,8,-1,-1,-1],"split_conditions":[5E-1,5E-1,5E-1,-1.4769708E-1,1.4020255E-1,5E-1,1.7895497E-1,-8.6376965E-2,1.0378189E0],"split_indices":[107,104,104,0,0,17,0,0,0],"split_type":[0,0,0,0,0,0,0,0,0],"sum_hessian":[7.264805E1,4.4694252E1,2.7953796E1,4.159918E1,3.0950718E0,2.950524E0,2.5003273E1,1.3188865E0,1.6316376E0],"tree_param":{"num_deleted":"0","num_feature":"131","num_nodes":"9","size_leaf_vector":"0"}},{"base_weights":[6.987143E-2,-4.0541276E-1,9.065225E-1,-4.927836E-1,4.8928016E-1,3.007665E0,5.9536356E-1],"categories":[],"categories_nodes":[],"categories_segments":[],"categories_sizes":[],"default_left":[1,1,1,0,0,0,0],"id":56,"left_children":[1,3,5,-1,-1,-1,-1],"loss_changes":[2.9675097E1,3.9692564E0,1.5868029E1,0E0,0E0,0E0,0E0],"parents":[2147483647,0,0,1,1,2,2],"right_children":[2,4,6,-1,-1,-1,-1],"split_conditions":[5E-1,5E-1,5E-1,-1.4783509E-1,1.4678405E-1,9.022995E-1,1.7860907E-1],"split_indices":[32,73,73,0,0,0,0],"split_type":[0,0,0,0,0,0,0],"sum_hessian":[7.27025E1,4.669275E1,2.6009752E1,4.2947906E1,3.744845E0,2.237142E0,2.377261E1],"tree_param":{"num_deleted":"0","num_feature":"131","num_nodes":"7","size_leaf_vector":"0"}},{"base_weights":[8.076706E-2,-4.611221E-1,8.911021E-1,-4.9250716E-1,3.4420636E-1,3.164232E0,5.9842086E-1,5.124644E0,-2.6393333E-1],"categories":[],"categories_nodes":[],"categories_segments":[],"categories_sizes":[],"default_left":[1,1,1,0,0,1,0,0,0],"id":57,"left_children":[1,3,5,-1,-1,7,-1,-1,-1],"loss_changes":[3.23503E1,1.2878809E0,1.7725773E1,0E0,0E0,2.2392174E1,0E0,0E0,0E0],"parents":[2147483647,0,0,1,1,2,2,5,5],"right_children":[2,4,6,-1,-1,8,-1,-1,-1],"split_conditions":[5E-1,5E-1,5E-1,-1.4775215E-1,1.0326191E-1,5E-1,1.7952627E-1,1.5373932E0,-7.918E-2],"split_indices":[107,118,118,0,0,100,0,0,0],"split_type":[0,0,0,0,0,0,0,0,0],"sum_hessian":[7.173637E1,4.3247044E1,2.8489319E1,4.1998722E1,1.2483239E0,2.1306078E0,2.635871E1,1.0406455E0,1.0899625E0],"tree_param":{"num_deleted":"0","num_feature":"131","num_nodes":"9","size_leaf_vector":"0"}},{"base_weights":[4.151355E-2,-4.153653E-1,8.36569E-1,-4.9271145E-1,4.7022915E-1,3.4311898E0,5.8901256E-1],"categories":[],"categories_nodes":[],"categories_segments":[],"categories_sizes":[],"default_left":[1,1,1,0,0,0,0],"id":58,"left_children":[1,3,5,-1,-1,-1,-1],"loss_changes":[2.6952991E1,3.463582E0,1.5360924E1,0E0,0E0,0E0,0E0],"parents":[2147483647,0,0,1,1,2,2],"right_children":[2,4,6,-1,-1,-1,-1],"split_conditions":[5E-1,5E-1,5E-1,-1.4781344E-1,1.4106876E-1,1.029357E0,1.7670378E-1],"split_indices":[108,29,29,0,0,0,0],"split_type":[0,0,0,0,0,0,0],"sum_hessian":[7.224417E1,4.6182785E1,2.6061386E1,4.2881256E1,3.301531E0,1.1498337E0,2.4911552E1],"tree_param":{"num_deleted":"0","num_feature":"131","num_nodes":"7","size_leaf_vector":"0"}},{"base_weights":[1.1068371E-1,-4.3679857E-1,6.082963E-1,-4.9446648E-1,2.3232251E-2,8.577517E-1,-5.3914803E-1,-3.599501E-1,4.640076E-1,2.1337743E0,6.7134565E-1,-2.686117E-1,3.0781295E0],"categories":[],"categories_nodes":[],"categories_segments":[],"categories_sizes":[],"default_left":[1,1,1,0,1,1,0,0,0,1,0,0,0],"id":59,"left_children":[1,3,5,-1,7,9,-1,-1,-1,11,-1,-1,-1],"loss_changes":[2.3504387E1,1.1044035E0,1.3372633E1,0E0,1.103415E0,7.4716682E0,0E0,0E0,0E0,1.0610613E1,0E0,0E0,0E0],"parents":[2147483647,0,0,1,1,2,2,4,4,5,5,9,9],"right_children":[2,4,6,-1,8,10,-1,-1,-1,12,-1,-1,-1],"split_conditions":[5E-1,5E-1,5E-1,-1.4833996E-1,5E-1,5E-1,-1.6174442E-1,-1.07985035E-1,1.3920228E-1,5E-1,2.014037E-1,-8.058351E-2,9.234389E-1],"split_indices":[18,109,26,0,14,14,0,0,0,109,0,0,0],"split_type":[0,0,0,0,0,0,0,0,0,0,0,0,0],"sum_hessian":[8.43002E1,4.019698E1,4.4103226E1,3.565281E1,4.54417E0,3.6434746E1,7.6684794E0,2.5289931E0,2.0151768E0,3.3124979E0,3.3122246E1,1.1366038E0,2.175894E0],"tree_param":{"num_deleted":"0","num_feature":"131","num_nodes":"13","size_leaf_vector":"0"}},{"base_weights":[-4.027659E-2,-4.9272394E-1,6.137003E-1],"categories":[],"categories_nodes":[],"categories_segments":[],"categories_sizes":[],"default_left":[1,0,0],"id":60,"left_children":[1,-1,-1],"loss_changes":[2.198686E1,0E0,0E0],"parents":[2147483647,0,0],"right_children":[2,-1,-1],"split_conditions":[5E-1,-1.478172E-1,1.8411009E-1],"split_indices":[87,0,0],"split_type":[0,0,0],"sum_hessian":[7.228558E1,4.2871758E1,2.9413824E1],"tree_param":{"num_deleted":"0","num_feature":"131","num_nodes":"3","size_leaf_vector":"0"}},{"base_weights":[7.720289E-3,-4.525207E-1,4.901593E-1,-4.9947694E-1,1.23148754E-1,7.095148E-1,-4.3951887E-1,-2.673109E-1,3.9222118E-1],"categories":[],"categories_nodes":[],"categories_segments":[],"categories_sizes":[],"default_left":[1,1,1,0,1,0,0,0,0],"id":61,"left_children":[1,3,5,-1,7,-1,-1,-1,-1],"loss_changes":[1.7133217E1,1.1292152E0,7.9929686E0,0E0,5.020924E-1,0E0,0E0,0E0,0E0],"parents":[2147483647,0,0,1,1,2,2,4,4],"right_children":[2,4,6,-1,8,-1,-1,-1,-1],"split_conditions":[5E-1,5E-1,5E-1,-1.4984308E-1,5E-1,2.1285444E-1,-1.3185567E-1,-8.0193266E-2,1.17666356E-1],"split_indices":[130,129,0,0,39,0,0,0,0],"split_type":[0,0,0,0,0,0,0,0,0],"sum_hessian":[7.516441E1,3.849892E1,3.6665493E1,3.5717842E1,2.781079E0,2.9857498E1,6.8079934E0,1.137281E0,1.6437981E0],"tree_param":{"num_deleted":"0","num_feature":"131","num_nodes":"9","size_leaf_vector":"0"}},{"base_weights":[1.7437346E-2,-5.1012397E-1,6.2903243E-1,-5.8183044E-1,-1.866826E-1,-8.290844E-2,7.2128016E-1,-4.8811248E-1,-9.328335E-1,-4.362792E-1,4.3300438E-1,-3.3746248E-1,1.7316444E-1,2.0544813E0,6.1397904E-1,-1.1042216E0,-3.2916164E-1],"categories":[],"categories_nodes":[],"categories_segments":[],"categories_sizes":[],"default_left":[1,1,1,1,1,1,1,0,1,0,0,0,0,0,0,0,0],"id":62,"left_children":[1,3,5,7,9,11,13,-1,15,-1,-1,-1,-1,-1,-1,-1,-1],"loss_changes":[2.7149328E1,9.3955326E-1,2.6182032E0,7.460127E-1,1.685148E0,4.081807E-1,3.6868439E0,0E0,3.1922388E-1,0E0,0E0,0E0,0E0,0E0,0E0,0E0,0E0],"parents":[2147483647,0,0,1,1,2,2,3,3,4,4,5,5,6,6,8,8],"right_children":[2,4,6,8,10,12,14,-1,16,-1,-1,-1,-1,-1,-1,-1,-1],"split_conditions":[5E-1,5E-1,5E-1,5E-1,5E-1,5E-1,5E-1,-1.4643376E-1,5E-1,-1.3088377E-1,1.2990132E-1,-1.0123875E-1,5.1949333E-2,6.163444E-1,1.8419372E-1,-3.312665E-1,-9.87485E-2],"split_indices":[56,71,41,28,28,28,28,0,55,0,0,0,0,0,0,0,0],"split_type":[0,0,0,0,0,0,0,0,0,0,0,0,0,0,0,0,0],"sum_hessian":[8.214929E1,4.4193733E1,3.795556E1,3.5520107E1,8.67363E0,4.3654594E0,3.35901E1,2.9921638E1,5.5984674E0,6.3941655E0,2.279464E0,2.0298305E0,2.335629E0,1.1503459E0,3.243975E1,3.7146642E0,1.883803E0],"tree_param":{"num_deleted":"0","num_feature":"131","num_nodes":"17","size_leaf_vector":"0"}},{"base_weights":[-5.5762548E-2,-4.927209E-1,5.9136856E-1],"categories":[],"categories_nodes":[],"categories_segments":[],"categories_sizes":[],"default_left":[1,0,0],"id":63,"left_children":[1,-1,-1],"loss_changes":[2.0809397E1,0E0,0E0],"parents":[2147483647,0,0],"right_children":[2,-1,-1],"split_conditions":[5E-1,-1.4781627E-1,1.7741057E-1],"split_indices":[21,0,0],"split_type":[0,0,0],"sum_hessian":[7.156096E1,4.2859688E1,2.8701275E1],"tree_param":{"num_deleted":"0","num_feature":"131","num_nodes":"3","size_leaf_vector":"0"}},{"base_weights":[1.8487286E-2,-4.5246634E-1,6.7107695E-1,-4.9184147E-1,3.7092155E-1,8.3834074E-2,8.159246E-1,-3.7565193E-1,4.7339663E-1],"categories":[],"categories_nodes":[],"categories_segments":[],"categories_sizes":[],"default_left":[1,1,1,0,0,1,0,0,0],"id":64,"left_children":[1,3,5,-1,-1,7,-1,-1,-1],"loss_changes":[2.2594406E1,1.5675879E0,2.5518284E0,0E0,0E0,1.4682822E0,0E0,0E0,0E0],"parents":[2147483647,0,0,1,1,2,2,5,5],"right_children":[2,4,6,-1,-1,8,-1,-1,-1],"split_conditions":[5E-1,5E-1,5E-1,-1.4755245E-1,1.1127647E-1,5E-1,2.4477738E-1,-1.1269558E-1,1.4201899E-1],"split_indices":[61,58,18,0,0,58,0,0,0],"split_type":[0,0,0,0,0,0,0,0,0],"sum_hessian":[7.152816E1,4.1723946E1,2.9804213E1,4.0204014E1,1.5199296E0,6.209276E0,2.3594936E1,2.865339E0,3.343937E0],"tree_param":{"num_deleted":"0","num_feature":"131","num_nodes":"9","size_leaf_vector":"0"}},{"base_weights":[-5.8851916E-2,-4.9253944E-1,5.597479E-1,-2.8546276E-2,5.906554E-1],"categories":[],"categories_nodes":[],"categories_segments":[],"categories_sizes":[],"default_left":[1,0,1,0,0],"id":65,"left_children":[1,-1,3,-1,-1],"loss_changes":[1.9666937E1,0E0,5.670233E-1,0E0,0E0],"parents":[2147483647,0,0,2,2],"right_children":[2,-1,4,-1,-1],"split_conditions":[5E-1,-1.4776184E-1,5E-1,-8.563883E-3,1.7719662E-1],"split_indices":[1,0,109,0,0],"split_type":[0,0,0,0,0],"sum_hessian":[7.128012E1,4.2022675E1,2.9257444E1,1.4642019E0,2.7793243E1],"tree_param":{"num_deleted":"0","num_feature":"131","num_nodes":"5","size_leaf_vector":"0"}},{"base_weights":[-5.6224346E-2,-4.9271983E-1,5.871447E-1],"categories":[],"categories_nodes":[],"categories_segments":[],"categories_sizes":[],"default_left":[1,0,0],"id":66,"left_children":[1,-1,-1],"loss_changes":[2.0702227E1,0E0,0E0],"parents":[2147483647,0,0],"right_children":[2,-1,-1],"split_conditions":[5E-1,-1.4781596E-1,1.7614341E-1],"split_indices":[79,0,0],"split_type":[0,0,0],"sum_hessian":[7.1688446E1,4.2850536E1,2.883791E1],"tree_param":{"num_deleted":"0","num_feature":"131","num_nodes":"3","size_leaf_vector":"0"}},{"base_weights":[-5.775204E-2,-4.927202E-1,5.888863E-1],"categories":[],"categories_nodes":[],"categories_segments":[],"categories_sizes":[],"default_left":[1,0,0],"id":67,"left_children":[1,-1,-1],"loss_changes":[2.0666359E1,0E0,0E0],"parents":[2147483647,0,0],"right_children":[2,-1,-1],"split_conditions":[5E-1,-1.4781606E-1,1.766659E-1],"split_indices":[15,0,0],"split_type":[0,0,0],"sum_hessian":[7.144431E1,4.285528E1,2.8589033E1],"tree_param":{"num_deleted":"0","num_feature":"131","num_nodes":"3","size_leaf_vector":"0"}},{"base_weights":[-1.8522998E-2,-4.562086E-1,6.9183755E-1,-4.927281E-1,3.6782795E-1],"categories":[],"categories_nodes":[],"categories_segments":[],"categories_sizes":[],"default_left":[1,1,0,0,0],"id":68,"left_children":[1,3,-1,-1,-1],"loss_changes":[2.285468E1,1.5492249E0,0E0,0E0,0E0],"parents":[2147483647,0,0,1,1],"right_children":[2,4,-1,-1,-1],"split_conditions":[5E-1,5E-1,2.0755127E-1,-1.4781845E-1,1.1034839E-1],"split_indices":[10,89,0,0,0],"split_type":[0,0,0,0,0],"sum_hessian":[7.149277E1,4.4457962E1,2.7034803E1,4.2956287E1,1.5016751E0],"tree_param":{"num_deleted":"0","num_feature":"131","num_nodes":"5","size_leaf_vector":"0"}},{"base_weights":[8.516045E-2,-4.437686E-1,7.8643614E-1,-4.910008E-1,-4.4804227E-2,9.6837187E-1,-4.0034348E-1,-3.6780444E-1,3.9731938E-1,3.821931E-1,9.9610484E-1,3.972742E-1,1.0250803E0,3.973816E-1,1.0588336E0,3.7111062E-1,1.0915195E0],"categories":[],"categories_nodes":[],"categories_segments":[],"categories_sizes":[],"default_left":[1,1,1,0,1,1,0,0,0,0,1,0,1,0,1,0,0],"id":69,"left_children":[1,3,5,-1,7,9,-1,-1,-1,-1,11,-1,13,-1,15,-1,-1],"loss_changes":[2.73013E1,7.705841E-1,7.211128E0,0E0,9.390971E-1,6.950188E-2,0E0,0E0,0E0,0E0,4.078102E-2,0E0,8.763504E-2,0E0,9.329224E-2,0E0,0E0],"parents":[2147483647,0,0,1,1,2,2,4,4,5,5,10,10,12,12,14,14],"right_children":[2,4,6,-1,8,10,-1,-1,-1,-1,12,-1,14,-1,16,-1,-1],"split_conditions":[5E-1,5E-1,5E-1,-1.4730024E-1,5E-1,5E-1,-1.2010305E-1,-1.1034133E-1,1.1919582E-1,1.1465793E-1,5E-1,1.1918227E-1,5E-1,1.1921448E-1,5E-1,1.1133319E-1,3.2745585E-1],"split_indices":[28,126,129,0,0,45,0,0,0,0,130,0,0,0,121,0,0],"split_type":[0,0,0,0,0,0,0,0,0,0,0,0,0,0,0,0,0],"sum_hessian":[7.16624E1,4.106032E1,3.0602076E1,3.6507607E1,4.5527163E0,2.6693882E1,3.9081936E0,2.7279015E0,1.8248146E0,1.8736019E0,2.482028E1,1.8244967E0,2.2995783E1,1.8252523E0,2.117053E1,1.5210437E0,1.9649488E1],"tree_param":{"num_deleted":"0","num_feature":"131","num_nodes":"17","size_leaf_vector":"0"}},{"base_weights":[-1.9510146E-2,-4.9206167E-1,5.8704615E-1,6.533959E-1,-3.2573783E-1,1.0650203E-1,6.904449E-1],"categories":[],"categories_nodes":[],"categories_segments":[],"categories_sizes":[],"default_left":[1,0,1,1,0,0,0],"id":70,"left_children":[1,-1,3,5,-1,-1,-1],"loss_changes":[2.1005499E1,0E0,2.1573114E0,5.396652E-1,0E0,0E0,0E0],"parents":[2147483647,0,0,2,2,3,3],"right_children":[2,-1,4,6,-1,-1,-1],"split_conditions":[5E-1,-1.476185E-1,5E-1,5E-1,-9.772135E-2,3.1950608E-2,2.0713347E-1],"split_indices":[68,0,60,121,0,0,0],"split_type":[0,0,0,0,0,0,0],"sum_hessian":[7.12768E1,4.0170116E1,3.1106684E1,2.9263695E1,1.8429884E0,2.1025026E0,2.7161192E1],"tree_param":{"num_deleted":"0","num_feature":"131","num_nodes":"7","size_leaf_vector":"0"}},{"base_weights":[-6.521721E-3,-4.6774969E-1,6.9633555E-1,-4.9227697E-1,6.1074313E-2,1.5099019E0,6.052787E-1],"categories":[],"categories_nodes":[],"categories_segments":[],"categories_sizes":[],"default_left":[1,1,1,0,0,0,0],"id":71,"left_children":[1,3,5,-1,-1,-1,-1],"loss_changes":[2.3602116E1,6.001339E-1,1.2233667E0,0E0,0E0,0E0,0E0],"parents":[2147483647,0,0,1,1,2,2],"right_children":[2,4,6,-1,-1,-1,-1],"split_conditions":[5E-1,5E-1,5E-1,-1.476831E-1,1.8322295E-2,4.529706E-1,1.8158361E-1],"split_indices":[105,30,120,0,0,0,0],"split_type":[0,0,0,0,0,0,0],"sum_hessian":[7.080143E1,4.2950813E1,2.7850616E1,4.1113068E1,1.8377452E0,1.2349297E0,2.6615688E1],"tree_param":{"num_deleted":"0","num_feature":"131","num_nodes":"7","size_leaf_vector":"0"}},{"base_weights":[-1.3011795E-2,-4.5006183E-1,6.864609E-1,-4.9274084E-1,3.894505E-1],"categories":[],"categories_nodes":[],"categories_segments":[],"categories_sizes":[],"default_left":[1,1,0,0,0],"id":72,"left_children":[1,3,-1,-1,-1],"loss_changes":[2.2707228E1,1.8291883E0,0E0,0E0,0E0],"parents":[2147483647,0,0,1,1],"right_children":[2,4,-1,-1,-1],"split_conditions":[5E-1,5E-1,2.0593828E-1,-1.4782226E-1,1.16835155E-1],"split_indices":[46,57,0,0,0],"split_type":[0,0,0,0,0],"sum_hessian":[7.226773E1,4.4696613E1,2.757112E1,4.292734E1,1.7692721E0],"tree_param":{"num_deleted":"0","num_feature":"131","num_nodes":"5","size_leaf_vector":"0"}},{"base_weights":[-2.1217784E-2,-4.278148E-1,6.992307E-1,-4.9273115E-1,4.5027462E-1],"categories":[],"categories_nodes":[],"categories_segments":[],"categories_sizes":[],"default_left":[1,1,0,0,0],"id":73,"left_children":[1,3,-1,-1,-1],"loss_changes":[2.1400137E1,2.8819914E0,0E0,0E0,0E0],"parents":[2147483647,0,0,1,1],"right_children":[2,4,-1,-1,-1],"split_conditions":[5E-1,5E-1,2.097692E-1,-1.4781936E-1,1.350824E-1],"split_indices":[124,4,0,0,0],"split_type":[0,0,0,0,0],"sum_hessian":[7.1033714E1,4.566698E1,2.5366734E1,4.2931923E1,2.735057E0],"tree_param":{"num_deleted":"0","num_feature":"131","num_nodes":"5","size_leaf_vector":"0"}},{"base_weights":[-2.3521515E-2,-4.616291E-1,7.0182365E-1,-4.9274227E-1,3.4706992E-1],"categories":[],"categories_nodes":[],"categories_segments":[],"categories_sizes":[],"default_left":[1,1,0,0,0],"id":74,"left_children":[1,3,-1,-1,-1],"loss_changes":[2.3064928E1,1.3087559E0,0E0,0E0,0E0],"parents":[2147483647,0,0,1,1],"right_children":[2,4,-1,-1,-1],"split_conditions":[5E-1,5E-1,2.105471E-1,-1.478227E-1,1.0412098E-1],"split_indices":[51,80,0,0,0],"split_type":[0,0,0,0,0],"sum_hessian":[7.056209E1,4.421803E1,2.634406E1,4.2956074E1,1.2619572E0],"tree_param":{"num_deleted":"0","num_feature":"131","num_nodes":"5","size_leaf_vector":"0"}},{"base_weights":[-4.8448097E-2,-4.92723E-1,6.06595E-1],"categories":[],"categories_nodes":[],"categories_segments":[],"categories_sizes":[],"default_left":[1,0,0],"id":75,"left_children":[1,-1,-1],"loss_changes":[2.1456125E1,0E0,0E0],"parents":[2147483647,0,0],"right_children":[2,-1,-1],"split_conditions":[5E-1,-1.478169E-1,1.819785E-1],"split_indices":[94,0,0],"split_type":[0,0,0],"sum_hessian":[7.170051E1,4.2871346E1,2.8829159E1],"tree_param":{"num_deleted":"0","num_feature":"131","num_nodes":"3","size_leaf_vector":"0"}},{"base_weights":[-2.3048434E-2,-4.622038E-1,6.981611E-1,-4.927151E-1,3.4249306E-1],"categories":[],"categories_nodes":[],"categories_segments":[],"categories_sizes":[],"default_left":[1,1,0,0,0],"id":76,"left_children":[1,3,-1,-1,-1],"loss_changes":[2.3035131E1,1.2778425E0,0E0,0E0,0E0],"parents":[2147483647,0,0,1,1],"right_children":[2,4,-1,-1,-1],"split_conditions":[5E-1,5E-1,2.0944835E-1,-1.4781453E-1,1.02747925E-1],"split_indices":[102,50,0,0,0],"split_type":[0,0,0,0,0],"sum_hessian":[7.0710724E1,4.417253E1,2.6538193E1,4.293239E1,1.2401435E0],"tree_param":{"num_deleted":"0","num_feature":"131","num_nodes":"5","size_leaf_vector":"0"}},{"base_weights":[-3.722073E-2,-4.9272457E-1,6.148671E-1],"categories":[],"categories_nodes":[],"categories_segments":[],"categories_sizes":[],"default_left":[1,0,0],"id":77,"left_children":[1,-1,-1],"loss_changes":[2.2157907E1,0E0,0E0],"parents":[2147483647,0,0],"right_children":[2,-1,-1],"split_conditions":[5E-1,-1.4781737E-1,1.8446013E-1],"split_indices":[11,0,0],"split_type":[0,0,0],"sum_hessian":[7.257862E1,4.2874104E1,2.970452E1],"tree_param":{"num_deleted":"0","num_feature":"131","num_nodes":"3","size_leaf_vector":"0"}},{"base_weights":[-1.1396035E-2,-4.5320782E-1,7.428083E-1,-4.9274415E-1,3.8641632E-1],"categories":[],"categories_nodes":[],"categories_segments":[],"categories_sizes":[],"default_left":[1,1,0,0,0],"id":78,"left_children":[1,3,-1,-1,-1],"loss_changes":[2.409582E1,1.7036037E0,0E0,0E0,0E0],"parents":[2147483647,0,0,1,1],"right_children":[2,4,-1,-1,-1],"split_conditions":[5E-1,5E-1,2.228425E-1,-1.4782324E-1,1.159249E-1],"split_indices":[117,7,0,0,0],"split_type":[0,0,0,0,0],"sum_hessian":[7.030254E1,4.4584248E1,2.5718294E1,4.2973827E1,1.6104205E0],"tree_param":{"num_deleted":"0","num_feature":"131","num_nodes":"5","size_leaf_vector":"0"}},{"base_weights":[-5.816683E-3,-4.4869667E-1,7.2934085E-1,-4.9279335E-1,3.97277E-1],"categories":[],"categories_nodes":[],"categories_segments":[],"categories_sizes":[],"default_left":[1,1,0,0,0],"id":79,"left_children":[1,3,-1,-1,-1],"loss_changes":[2.3918331E1,1.9056778E0,0E0,0E0,0E0],"parents":[2147483647,0,0,1,1],"right_children":[2,4,-1,-1,-1],"split_conditions":[5E-1,5E-1,2.1880226E-1,-1.4783801E-1,1.191831E-1],"split_indices":[9,24,0,0,0],"split_type":[0,0,0,0,0],"sum_hessian":[7.145717E1,4.483621E1,2.6620958E1,4.3011692E1,1.8245163E0],"tree_param":{"num_deleted":"0","num_feature":"131","num_nodes":"5","size_leaf_vector":"0"}},{"base_weights":[4.7105453E-3,-4.4823927E-1,7.633695E-1,-4.92703E-1,3.9879337E-1],"categories":[],"categories_nodes":[],"categories_segments":[],"categories_sizes":[],"default_left":[1,1,0,0,0],"id":80,"left_children":[1,3,-1,-1,-1],"loss_changes":[2.51117E1,1.9200678E0,0E0,0E0,0E0],"parents":[2147483647,0,0,1,1],"right_children":[2,4,-1,-1,-1],"split_conditions":[5E-1,5E-1,2.2901087E-1,-1.478109E-1,1.1963802E-1],"split_indices":[16,27,0,0,0],"split_type":[0,0,0,0,0],"sum_hessian":[7.108105E1,4.4764194E1,2.6316849E1,4.2929016E1,1.8351762E0],"tree_param":{"num_deleted":"0","num_feature":"131","num_nodes":"5","size_leaf_vector":"0"}},{"base_weights":[-5.45275E-2,-4.9233854E-1,5.303737E-1,5.8948356E-1,-3.1721944E-1],"categories":[],"categories_nodes":[],"categories_segments":[],"categories_sizes":[],"default_left":[1,0,1,0,0],"id":81,"left_children":[1,-1,3,-1,-1],"loss_changes":[1.8909597E1,0E0,1.7730207E0,0E0,0E0],"parents":[2147483647,0,0,2,2],"right_children":[2,-1,4,-1,-1],"split_conditions":[5E-1,-1.4770156E-1,5E-1,1.7684507E-1,-9.5165834E-2],"split_indices":[64,0,63,0,0],"split_type":[0,0,0,0,0],"sum_hessian":[7.182394E1,4.116746E1,3.0656473E1,2.8942581E1,1.713892E0],"tree_param":{"num_deleted":"0","num_feature":"131","num_nodes":"5","size_leaf_vector":"0"}},{"base_weights":[2.0207547E-2,-4.4225135E-1,7.7980846E-1,-4.8927784E-1,3.617188E-1],"categories":[],"categories_nodes":[],"categories_segments":[],"categories_sizes":[],"default_left":[1,1,0,0,0],"id":82,"left_children":[1,3,-1,-1,-1],"loss_changes":[2.0411697E1,1.5435491E0,0E0,0E0,0E0],"parents":[2147483647,0,0,1,1],"right_children":[2,4,-1,-1,-1],"split_conditions":[5E-1,5E-1,2.3394255E-1,-1.4678335E-1,1.0851564E-1],"split_indices":[119,103,0,0,0],"split_type":[0,0,0,0,0],"sum_hessian":[5.61242E1,3.514504E1,2.0979156E1,3.35727E1,1.5723398E0],"tree_param":{"num_deleted":"0","num_feature":"131","num_nodes":"5","size_leaf_vector":"0"}},{"base_weights":[4.5079067E-2,-4.201842E-1,8.6773014E-1,-4.893036E-1,4.096026E-1,3.2017503E0,5.523675E-1],"categories":[],"categories_nodes":[],"categories_segments":[],"categories_sizes":[],"default_left":[1,1,1,0,0,0,0],"id":83,"left_children":[1,3,5,-1,-1,-1,-1],"loss_changes":[2.2165377E1,2.325726E0,1.3617114E1,0E0,0E0,0E0,0E0],"parents":[2147483647,0,0,1,1,2,2],"right_children":[2,4,6,-1,-1,-1,-1],"split_conditions":[5E-1,5E-1,5E-1,-1.4679109E-1,1.2288079E-1,9.605251E-1,1.6571026E-1],"split_indices":[81,38,69,0,0,0,0],"split_type":[0,0,0,0,0,0,0],"sum_hessian":[5.5958347E1,3.6055706E1,1.9902641E1,3.366206E1,2.3936481E0,1.2796044E0,1.8623037E1],"tree_param":{"num_deleted":"0","num_feature":"131","num_nodes":"7","size_leaf_vector":"0"}},{"base_weights":[4.724686E-2,-4.1602653E-1,8.638528E-1,-4.8930565E-1,4.1513097E-1,3.2342167E0,5.495697E-1],"categories":[],"categories_nodes":[],"categories_segments":[],"categories_sizes":[],"default_left":[1,1,1,0,0,0,0],"id":84,"left_children":[1,3,5,-1,-1,-1,-1],"loss_changes":[2.2027176E1,2.4699612E0,1.3909054E1,0E0,0E0,0E0,0E0],"parents":[2147483647,0,0,1,1,2,2],"right_children":[2,4,6,-1,-1,-1,-1],"split_conditions":[5E-1,5E-1,5E-1,-1.467917E-1,1.2453929E-1,9.7026503E-1,1.6487092E-1],"split_indices":[8,86,86,0,0,0,0],"split_type":[0,0,0,0,0,0,0],"sum_hessian":[5.6274956E1,3.6218292E1,2.0056665E1,3.366179E1,2.5565004E0,1.260328E0,1.8796337E1],"tree_param":{"num_deleted":"0","num_feature":"131","num_nodes":"7","size_leaf_vector":"0"}},{"base_weights":[-6.121077E-3,-4.5462444E-1,7.067803E-1,-4.8933303E-1,3.1087896E-1],"categories":[],"categories_nodes":[],"categories_segments":[],"categories_sizes":[],"default_left":[1,1,0,0,0],"id":85,"left_children":[1,3,-1,-1,-1],"loss_changes":[1.8658644E1,1.1036348E0,0E0,0E0,0E0],"parents":[2147483647,0,0,1,1],"right_children":[2,4,-1,-1,-1],"split_conditions":[5E-1,5E-1,2.120341E-1,-1.4679992E-1,9.326369E-2],"split_indices":[47,33,0,0,0],"split_type":[0,0,0,0,0],"sum_hessian":[5.635097E1,3.4812122E1,2.153885E1,3.3647293E1,1.1648275E0],"tree_param":{"num_deleted":"0","num_feature":"131","num_nodes":"5","size_leaf_vector":"0"}},{"base_weights":[4.7449857E-2,-4.1143572E-1,9.107202E-1,-4.8926622E-1,4.3315637E-1,4.0193585E-1,9.5186543E-1,3.8687614E-1,9.9822575E-1],"categories":[],"categories_nodes":[],"categories_segments":[],"categories_sizes":[],"default_left":[1,1,1,0,0,0,1,0,0],"id":86,"left_children":[1,3,5,-1,-1,-1,7,-1,-1],"loss_changes":[2.2601746E1,2.6654005E0,3.1591415E-2,0E0,0E0,0E0,7.4124336E-2,0E0,0E0],"parents":[2147483647,0,0,1,1,2,2,6,6],"right_children":[2,4,6,-1,-1,-1,8,-1,-1],"split_conditions":[5E-1,5E-1,5E-1,-1.4677987E-1,1.2994692E-1,1.20580755E-1,5E-1,1.1606284E-1,2.9946774E-1],"split_indices":[96,122,19,0,0,0,25,0,0],"split_type":[0,0,0,0,0,0,0,0,0],"sum_hessian":[5.5108727E1,3.6323677E1,1.878505E1,3.364403E1,2.6796434E0,2.2111847E0,1.6573866E1,1.9654975E0,1.4608368E1],"tree_param":{"num_deleted":"0","num_feature":"131","num_nodes":"9","size_leaf_vector":"0"}},{"base_weights":[-2.8659971E-3,-4.5131972E-1,6.832177E-1,-4.8945114E-1,3.2881176E-1,1.6653594E0,5.617604E-1],"categories":[],"categories_nodes":[],"categories_segments":[],"categories_sizes":[],"default_left":[1,1,1,0,0,0,0],"id":87,"left_children":[1,3,5,-1,-1,-1,-1],"loss_changes":[1.8254412E1,1.2281122E0,1.8621616E0,0E0,0E0,0E0,0E0],"parents":[2147483647,0,0,1,1,2,2],"right_children":[2,4,6,-1,-1,-1,-1],"split_conditions":[5E-1,5E-1,5E-1,-1.4683534E-1,9.8643534E-2,4.9960783E-1,1.6852814E-1],"split_indices":[70,66,66,0,0,0,0],"split_type":[0,0,0,0,0,0,0],"sum_hessian":[5.7327644E1,3.4874413E1,2.2453232E1,3.3604492E1,1.2699232E0,1.0721343E0,2.1381096E1],"tree_param":{"num_deleted":"0","num_feature":"131","num_nodes":"7","size_leaf_vector":"0"}},{"base_weights":[1.0277178E-2,-4.4837943E-1,7.0114994E-1,-4.8895714E-1,3.3655939E-1,1.4388977E0,5.9137005E-1],"categories":[],"categories_nodes":[],"categories_segments":[],"categories_sizes":[],"default_left":[1,1,1,0,0,0,0],"id":88,"left_children":[1,3,5,-1,-1,-1,-1],"loss_changes":[1.847975E1,1.2813783E0,1.033164E0,0E0,0E0,0E0,0E0],"parents":[2147483647,0,0,1,1,2,2],"right_children":[2,4,6,-1,-1,-1,-1],"split_conditions":[5E-1,5E-1,5E-1,-1.4668715E-1,1.0096782E-1,4.3166932E-1,1.7741102E-1],"split_indices":[39,67,67,0,0,0,0],"split_type":[0,0,0,0,0,0,0],"sum_hessian":[5.6326904E1,3.4063698E1,2.226321E1,3.274786E1,1.3158375E0,1.3155143E0,2.0947695E1],"tree_param":{"num_deleted":"0","num_feature":"131","num_nodes":"7","size_leaf_vector":"0"}},{"base_weights":[7.585819E-2,-4.191558E-1,8.221252E-1,-4.9191493E-1,4.1978046E-1,1.7636447E0,5.588605E-1],"categories":[],"categories_nodes":[],"categories_segments":[],"categories_sizes":[],"default_left":[1,1,1,0,0,0,0],"id":89,"left_children":[1,3,5,-1,-1,-1,-1],"loss_changes":[2.2858055E1,2.4834347E0,5.1222744E0,0E0,0E0,0E0,0E0],"parents":[2147483647,0,0,1,1,2,2],"right_children":[2,4,6,-1,-1,-1,-1],"split_conditions":[5E-1,5E-1,5E-1,-1.4757448E-1,1.2593414E-1,5.2909344E-1,1.6765815E-1],"split_indices":[6,123,123,0,0,0,0],"split_type":[0,0,0,0,0,0,0],"sum_hessian":[5.994393E1,3.6302246E1,2.3641684E1,3.378573E1,2.516518E0,3.920736E0,1.9720947E1],"tree_param":{"num_deleted":"0","num_feature":"131","num_nodes":"7","size_leaf_vector":"0"}},{"base_weights":[-6.420276E-2,-4.8910388E-1,5.2598536E-1,-1.8709445E-2,5.570117E-1],"categories":[],"categories_nodes":[],"categories_segments":[],"categories_sizes":[],"default_left":[1,0,1,0,0],"id":90,"left_children":[1,-1,3,-1,-1],"loss_changes":[1.4686313E1,0E0,4.2559528E-1,0E0,0E0],"parents":[2147483647,0,0,2,2],"right_children":[2,-1,4,-1,-1],"split_conditions":[5E-1,-1.4673117E-1,5E-1,-5.612834E-3,1.6710353E-1],"split_indices":[90,0,64,0,0],"split_type":[0,0,0,0,0],"sum_hessian":[5.653862E1,3.2971985E1,2.3566635E1,1.2914306E0,2.2275206E1],"tree_param":{"num_deleted":"0","num_feature":"131","num_nodes":"5","size_leaf_vector":"0"}},{"base_weights":[6.0900345E-2,-4.318725E-1,6.4100796E-1,-4.8591438E-1,-6.3901325E-3,8.379819E-1,-4.0086797E-1,-3.245283E-1,3.1779143E-1,1.6091655E0,6.8357736E-1],"categories":[],"categories_nodes":[],"categories_segments":[],"categories_sizes":[],"default_left":[1,1,1,0,1,1,0,0,0,0,0],"id":91,"left_children":[1,3,5,-1,7,9,-1,-1,-1,-1,-1],"loss_changes":[1.663438E1,7.2206306E-1,5.8121834E0,0E0,5.742059E-1,1.6107769E0,0E0,0E0,0E0,0E0,0E0],"parents":[2147483647,0,0,1,1,2,2,4,4,5,5],"right_children":[2,4,6,-1,8,10,-1,-1,-1,-1,-1],"split_conditions":[5E-1,5E-1,5E-1,-1.4577432E-1,5E-1,5E-1,-1.20260395E-1,-9.7358495E-2,9.5337436E-2,4.8274967E-1,2.0507322E-1],"split_indices":[129,130,41,0,60,55,0,0,0,0,0],"split_type":[0,0,0,0,0,0,0,0,0,0,0],"sum_hessian":[5.622198E1,3.0537449E1,2.568453E1,2.6969885E1,3.567564E0,2.1765339E1,3.9191911E0,1.8000253E0,1.7675388E0,2.0591288E0,1.9706211E1],"tree_param":{"num_deleted":"0","num_feature":"131","num_nodes":"11","size_leaf_vector":"0"}},{"base_weights":[-6.2840395E-2,-4.8933265E-1,5.601209E-1],"categories":[],"categories_nodes":[],"categories_segments":[],"categories_sizes":[],"default_left":[1,0,0],"id":92,"left_children":[1,-1,-1],"loss_changes":[1.5523228E1,0E0,0E0],"parents":[2147483647,0,0],"right_children":[2,-1,-1],"split_conditions":[5E-1,-1.467998E-1,1.6803627E-1],"split_indices":[22,0,0],"split_type":[0,0,0],"sum_hessian":[5.639489E1,3.360364E1,2.2791248E1],"tree_param":{"num_deleted":"0","num_feature":"131","num_nodes":"3","size_leaf_vector":"0"}},{"base_weights":[-5.4474484E-2,-4.893308E-1,5.571464E-1],"categories":[],"categories_nodes":[],"categories_segments":[],"categories_sizes":[],"default_left":[1,0,0],"id":93,"left_children":[1,-1,-1],"loss_changes":[1.5772565E1,0E0,0E0],"parents":[2147483647,0,0],"right_children":[2,-1,-1],"split_conditions":[5E-1,-1.4679925E-1,1.6714391E-1],"split_indices":[75,0,0],"split_type":[0,0,0],"sum_hessian":[5.7277626E1,3.3593166E1,2.3684462E1],"tree_param":{"num_deleted":"0","num_feature":"131","num_nodes":"3","size_leaf_vector":"0"}},{"base_weights":[-6.7243055E-2,-4.89333E-1,5.6122196E-1],"categories":[],"categories_nodes":[],"categories_segments":[],"categories_sizes":[],"default_left":[1,0,0],"id":94,"left_children":[1,-1,-1],"loss_changes":[1.5383578E1,0E0,0E0],"parents":[2147483647,0,0],"right_children":[2,-1,-1],"split_conditions":[5E-1,-1.467999E-1,1.683666E-1],"split_indices":[48,0,0],"split_type":[0,0,0],"sum_hessian":[5.5957153E1,3.360723E1,2.234992E1],"tree_param":{"num_deleted":"0","num_feature":"131","num_nodes":"3","size_leaf_vector":"0"}},{"base_weights":[-6.8136784E-3,-4.5354328E-1,7.1942693E-1,-4.893547E-1,3.1691122E-1],"categories":[],"categories_nodes":[],"categories_segments":[],"categories_sizes":[],"default_left":[1,1,0,0,0],"id":95,"left_children":[1,3,-1,-1,-1],"loss_changes":[1.8798347E1,1.1446438E0,0E0,0E0,0E0],"parents":[2147483647,0,0,1,1],"right_children":[2,4,-1,-1,-1],"split_conditions":[5E-1,5E-1,2.1582809E-1,-1.4680642E-1,9.507337E-2],"split_indices":[54,12,0,0,0],"split_type":[0,0,0,0,0],"sum_hessian":[5.5936398E1,3.486532E1,2.107108E1,3.366537E1,1.1999477E0],"tree_param":{"num_deleted":"0","num_feature":"131","num_nodes":"5","size_leaf_vector":"0"}},{"base_weights":[6.6857E-2,-4.1245258E-1,7.2572416E-1,-4.888254E-1,4.2334902E-1,7.7829945E-1,-2.6161847E-1,1.5985225E0,5.607707E-1],"categories":[],"categories_nodes":[],"categories_segments":[],"categories_sizes":[],"default_left":[1,1,1,0,0,1,0,0,0],"id":96,"left_children":[1,3,5,-1,-1,7,-1,-1,-1],"loss_changes":[1.9655228E1,2.512444E0,1.5622759E0,0E0,0E0,3.582304E0,0E0,0E0,0E0],"parents":[2147483647,0,0,1,1,2,2,5,5],"right_children":[2,4,6,-1,-1,8,-1,-1,-1],"split_conditions":[5E-1,5E-1,5E-1,-1.4664763E-1,1.2700471E-1,5E-1,-7.848554E-2,4.7955677E-1,1.6823122E-1],"split_indices":[107,104,26,0,0,104,0,0,0],"split_type":[0,0,0,0,0,0,0,0,0],"sum_hessian":[6.029138E1,3.5117943E1,2.5173439E1,3.2558037E1,2.5599055E0,2.410176E1,1.0716783E0,3.7213457E0,2.0380415E1],"tree_param":{"num_deleted":"0","num_feature":"131","num_nodes":"9","size_leaf_vector":"0"}},{"base_weights":[6.7677826E-2,-4.010964E-1,7.8632236E-1,-4.893651E-1,4.4512114E-1,1.5019705E0,5.577792E-1],"categories":[],"categories_nodes":[],"categories_segments":[],"categories_sizes":[],"default_left":[1,1,1,0,0,0,0],"id":97,"left_children":[1,3,5,-1,-1,-1,-1],"loss_changes":[2.0942743E1,3.0352817E0,3.1710844E0,0E0,0E0,0E0,0E0],"parents":[2147483647,0,0,1,1,2,2],"right_children":[2,4,6,-1,-1,-1,-1],"split_conditions":[5E-1,5E-1,5E-1,-1.4680953E-1,1.3353635E-1,4.5059118E-1,1.6733377E-1],"split_indices":[32,73,73,0,0,0,0],"split_type":[0,0,0,0,0,0,0],"sum_hessian":[6.02302E1,3.6719692E1,2.3510508E1,3.3633133E1,3.0865595E0,4.342062E0,1.9168446E1],"tree_param":{"num_deleted":"0","num_feature":"131","num_nodes":"7","size_leaf_vector":"0"}},{"base_weights":[7.6154575E-2,-4.562743E-1,7.593758E-1,-4.8908743E-1,3.0528888E-1,1.3826528E0,5.6104976E-1,-2.8996283E-1,1.94032E0],"categories":[],"categories_nodes":[],"categories_segments":[],"categories_sizes":[],"default_left":[1,1,1,0,0,1,0,0,0],"id":98,"left_children":[1,3,5,-1,-1,7,-1,-1,-1],"loss_changes":[2.2574455E1,1.0231128E0,2.5788498E0,0E0,0E0,6.036031E0,0E0,0E0,0E0],"parents":[2147483647,0,0,1,1,2,2,5,5],"right_children":[2,4,6,-1,-1,8,-1,-1,-1],"split_conditions":[5E-1,5E-1,5E-1,-1.4672624E-1,9.1586664E-2,5E-1,1.6831493E-1,-8.698885E-2,5.8209604E-1],"split_indices":[107,118,118,0,0,2,0,0,0],"split_type":[0,0,0,0,0,0,0,0,0],"sum_hessian":[6.010502E1,3.3966988E1,2.6138031E1,3.2906925E1,1.0600615E0,4.867954E0,2.1270079E1,1.3372308E0,3.530723E0],"tree_param":{"num_deleted":"0","num_feature":"131","num_nodes":"9","size_leaf_vector":"0"}},{"base_weights":[4.2919587E-2,-4.1103494E-1,7.555158E-1,-4.8929602E-1,4.2722556E-1,1.6955076E0,5.537442E-1],"categories":[],"categories_nodes":[],"categories_segments":[],"categories_sizes":[],"default_left":[1,1,1,0,0,0,0],"id":99,"left_children":[1,3,5,-1,-1,-1,-1],"loss_changes":[1.9716394E1,2.6555672E0,3.5555658E0,0E0,0E0,0E0,0E0],"parents":[2147483647,0,0,1,1,2,2],"right_children":[2,4,6,-1,-1,-1,-1],"split_conditions":[5E-1,5E-1,5E-1,-1.467888E-1,1.2816767E-1,5.086523E-1,1.6612327E-1],"split_indices":[108,29,29,0,0,0,0],"split_type":[0,0,0,0,0,0,0],"sum_hessian":[5.898972E1,3.6292816E1,2.2696901E1,3.3574547E1,2.718268E0,2.70271E0,1.9994192E1],"tree_param":{"num_deleted":"0","num_feature":"131","num_nodes":"7","size_leaf_vector":"0"}},{"base_weights":[1.0161737E-1,-4.3060896E-1,5.3305185E-1,-4.9034992E-1,2.7270412E-2,7.3928285E-1,-5.0709796E-1,-3.3408225E-1,4.1079146E-1,1.2060366E0,6.1175066E-1],"categories":[],"categories_nodes":[],"categories_segments":[],"categories_sizes":[],"default_left":[1,1,1,0,1,1,0,0,0,0,0],"id":100,"left_children":[1,3,5,-1,7,9,-1,-1,-1,-1,-1],"loss_changes":[1.6799944E1,9.122658E-1,9.0203085E0,0E0,7.9413676E-1,1.2885399E0,0E0,0E0,0E0,0E0,0E0],"parents":[2147483647,0,0,1,1,2,2,4,4,5,5],"right_children":[2,4,6,-1,8,10,-1,-1,-1,-1,-1],"split_conditions":[5E-1,5E-1,5E-1,-1.4710498E-1,5E-1,5E-1,-1.521294E-1,-1.0022468E-1,1.2323744E-1,3.6181098E-1,1.835252E-1],"split_indices":[18,109,26,0,14,14,0,0,0,0,0],"split_type":[0,0,0,0,0,0,0,0,0,0,0],"sum_hessian":[7.116423E1,3.1861343E1,3.9302887E1,2.8121347E1,3.739995E0,3.3041073E1,6.261816E0,1.992023E0,1.7479719E0,5.275738E0,2.7765335E1],"tree_param":{"num_deleted":"0","num_feature":"131","num_nodes":"11","size_leaf_vector":"0"}},{"base_weights":[-4.723258E-2,-4.893353E-1,5.720275E-1],"categories":[],"categories_nodes":[],"categories_segments":[],"categories_sizes":[],"default_left":[1,0,0],"id":101,"left_children":[1,-1,-1],"loss_changes":[1.6265676E1,0E0,0E0],"parents":[2147483647,0,0],"right_children":[2,-1,-1],"split_conditions":[5E-1,-1.4680059E-1,1.7160825E-1],"split_indices":[87,0,0],"split_type":[0,0,0],"sum_hessian":[5.7389812E1,3.360693E1,2.3782885E1],"tree_param":{"num_deleted":"0","num_feature":"131","num_nodes":"3","size_leaf_vector":"0"}},{"base_weights":[6.473718E-3,-4.4642654E-1,4.7140482E-1,-4.948443E-1,1.13142096E-1,6.826436E-1,-4.2580855E-1,1.7177724E0,5.67644E-1],"categories":[],"categories_nodes":[],"categories_segments":[],"categories_sizes":[],"default_left":[1,1,1,0,0,1,0,0,0],"id":102,"left_children":[1,3,5,-1,-1,7,-1,-1,-1],"loss_changes":[1.3059743E1,9.073782E-1,6.0897193E0,0E0,0E0,2.0188417E0,0E0,0E0,0E0],"parents":[2147483647,0,0,1,1,2,2,5,5],"right_children":[2,4,6,-1,-1,8,-1,-1,-1],"split_conditions":[5E-1,5E-1,5E-1,-1.484533E-1,3.394263E-2,5E-1,-1.2774257E-1,5.1533175E-1,1.7029321E-1],"split_indices":[130,129,0,0,0,39,0,0,0],"split_type":[0,0,0,0,0,0,0,0,0],"sum_hessian":[6.0022243E1,3.0424665E1,2.9597576E1,2.8108217E1,2.3164492E0,2.4150715E1,5.4468617E0,1.0212333E0,2.3129482E1],"tree_param":{"num_deleted":"0","num_feature":"131","num_nodes":"9","size_leaf_vector":"0"}},{"base_weights":[1.0238222E-2,-5.085351E-1,5.7314515E-1,-5.8121496E-1,-1.7768963E-1,-1.31034E-1,6.747665E-1,-4.8353922E-1,-8.77782E-1,-4.2164406E-1,3.8392854E-1,-3.7303427E-1,3.4336805E-1,1.4063609E-1,7.118008E-1,-1.0011698E0,-3.0391333E-1],"categories":[],"categories_nodes":[],"categories_segments":[],"categories_sizes":[],"default_left":[1,1,1,1,1,1,1,0,1,0,0,0,0,0,0,0,0],"id":103,"left_children":[1,3,5,7,9,11,13,-1,15,-1,-1,-1,-1,-1,-1,-1,-1],"loss_changes":[2.0597647E1,7.796097E-1,2.5085573E0,4.3482685E-1,1.2652841E0,7.138817E-1,4.8774052E-1,0E0,1.2927246E-1,0E0,0E0,0E0,0E0,0E0,0E0,0E0,0E0],"parents":[2147483647,0,0,1,1,2,2,3,3,4,4,5,5,6,6,8,8],"right_children":[2,4,6,8,10,12,14,-1,16,-1,-1,-1,-1,-1,-1,-1,-1],"split_conditions":[5E-1,5E-1,5E-1,5E-1,5E-1,5E-1,5E-1,-1.4506178E-1,5E-1,-1.2649323E-1,1.1517856E-1,-1.1191028E-1,1.0301042E-1,4.2190827E-2,2.1354026E-1,-3.0035096E-1,-9.1174E-2],"split_indices":[56,71,129,28,28,0,41,0,55,0,0,0,0,0,0,0,0],"split_type":[0,0,0,0,0,0,0,0,0,0,0,0,0,0,0,0,0],"sum_hessian":[6.85367E1,3.5716797E1,3.28199E1,2.8663307E1,7.0534916E0,4.1024914E0,2.8717411E1,2.3540565E1,5.122742E0,5.0912147E0,1.9622768E0,2.858168E0,1.2443234E0,2.1731062E0,2.6544304E1,3.60338E0,1.519362E0],"tree_param":{"num_deleted":"0","num_feature":"131","num_nodes":"17","size_leaf_vector":"0"}},{"base_weights":[-5.896728E-2,-4.893315E-1,5.5794513E-1],"categories":[],"categories_nodes":[],"categories_segments":[],"categories_sizes":[],"default_left":[1,0,0],"id":104,"left_children":[1,-1,-1],"loss_changes":[1.5626314E1,0E0,0E0],"parents":[2147483647,0,0],"right_children":[2,-1,-1],"split_conditions":[5E-1,-1.4679946E-1,1.6738355E-1],"split_indices":[21,0,0],"split_type":[0,0,0],"sum_hessian":[5.682849E1,3.3597412E1,2.3231083E1],"tree_param":{"num_deleted":"0","num_feature":"131","num_nodes":"3","size_leaf_vector":"0"}},{"base_weights":[2.2762872E-2,-4.473157E-1,6.69566E-1,-4.8822668E-1,3.307709E-1,6.796178E-2,8.2520354E-1,-3.561133E-1,4.3000323E-1],"categories":[],"categories_nodes":[],"categories_segments":[],"categories_sizes":[],"default_left":[1,1,1,0,0,1,0,0,0],"id":105,"left_children":[1,3,5,-1,-1,7,-1,-1,-1],"loss_changes":[1.7698877E1,1.2355051E0,2.2365885E0,0E0,0E0,1.093118E0,0E0,0E0,0E0],"parents":[2147483647,0,0,1,1,2,2,5,5],"right_children":[2,4,6,-1,-1,8,-1,-1,-1],"split_conditions":[5E-1,5E-1,5E-1,-1.4646801E-1,9.923128E-2,5E-1,2.4756107E-1,-1.06834E-1,1.2900098E-1],"split_indices":[61,58,18,0,0,58,0,0,0],"split_type":[0,0,0,0,0,0,0,0,0],"sum_hessian":[5.622568E1,3.2739754E1,2.3485924E1,3.1458242E1,1.2815125E0,5.122394E0,1.8363531E1,2.36663E0,2.7557638E0],"tree_param":{"num_deleted":"0","num_feature":"131","num_nodes":"9","size_leaf_vector":"0"}},{"base_weights":[-6.422871E-2,-4.891036E-1,5.244376E-1,-2.37515E-2,5.560953E-1],"categories":[],"categories_nodes":[],"categories_segments":[],"categories_sizes":[],"default_left":[1,0,1,0,0],"id":106,"left_children":[1,-1,3,-1,-1],"loss_changes":[1.4657869E1,0E0,4.4047546E-1,0E0,0E0],"parents":[2147483647,0,0,2,2],"right_children":[2,-1,4,-1,-1],"split_conditions":[5E-1,-1.4673108E-1,5E-1,-7.12545E-3,1.668286E-1],"split_indices":[1,0,109,0,0],"split_type":[0,0,0,0,0],"sum_hessian":[5.6580227E1,3.2960117E1,2.362011E1,1.303214E0,2.2316895E1],"tree_param":{"num_deleted":"0","num_feature":"131","num_nodes":"5","size_leaf_vector":"0"}},{"base_weights":[-6.2180467E-2,-4.8932943E-1,5.5387E-1],"categories":[],"categories_nodes":[],"categories_segments":[],"categories_sizes":[],"default_left":[1,0,0],"id":107,"left_children":[1,-1,-1],"loss_changes":[1.5447718E1,0E0,0E0],"parents":[2147483647,0,0],"right_children":[2,-1,-1],"split_conditions":[5E-1,-1.4679883E-1,1.6616102E-1],"split_indices":[79,0,0],"split_type":[0,0,0],"sum_hessian":[5.6674183E1,3.3589817E1,2.3084366E1],"tree_param":{"num_deleted":"0","num_feature":"131","num_nodes":"3","size_leaf_vector":"0"}},{"base_weights":[-6.207928E-2,-4.8933038E-1,5.556704E-1],"categories":[],"categories_nodes":[],"categories_segments":[],"categories_sizes":[],"default_left":[1,0,0],"id":108,"left_children":[1,-1,-1],"loss_changes":[1.5479868E1,0E0,0E0],"parents":[2147483647,0,0],"right_children":[2,-1,-1],"split_conditions":[5E-1,-1.4679912E-1,1.6670112E-1],"split_indices":[15,0,0],"split_type":[0,0,0],"sum_hessian":[5.6620274E1,3.3593826E1,2.3026447E1],"tree_param":{"num_deleted":"0","num_feature":"131","num_nodes":"3","size_leaf_vector":"0"}},{"base_weights":[-1.9345704E-2,-4.5417815E-1,6.762377E-1,-4.893249E-1,3.13279E-1],"categories":[],"categories_nodes":[],"categories_segments":[],"categories_sizes":[],"default_left":[1,1,0,0,0],"id":109,"left_children":[1,3,-1,-1,-1],"loss_changes":[1.7625795E1,1.119803E0,0E0,0E0,0E0],"parents":[2147483647,0,0,1,1],"right_children":[2,4,-1,-1,-1],"split_conditions":[5E-1,5E-1,2.0287132E-1,-1.4679748E-1,9.39837E-2],"split_indices":[127,10,0,0,0],"split_type":[0,0,0,0,0],"sum_hessian":[5.625892E1,3.4831585E1,2.1427334E1,3.3652817E1,1.178768E0],"tree_param":{"num_deleted":"0","num_feature":"131","num_nodes":"5","size_leaf_vector":"0"}},{"base_weights":[1.0075176E-1,-4.3889025E-1,8.2911134E-1,-4.871816E-1,-3.9149754E-2,1.0191587E0,-3.789331E-1,-3.4309164E-1,3.5572204E-1,3.405393E-1,1.055997E0,3.5753915E-1,1.0951087E0,3.5563284E-1,1.1410363E0,3.310935E-1,1.186457E0],"categories":[],"categories_nodes":[],"categories_segments":[],"categories_sizes":[],"default_left":[1,1,1,0,1,1,0,0,0,0,1,0,1,0,1,0,0],"id":110,"left_children":[1,3,5,-1,7,9,-1,-1,-1,-1,11,-1,13,-1,15,-1,-1],"loss_changes":[2.2774292E1,6.257744E-1,6.036606E0,0E0,6.8468297E-1,1.7879295E-1,0E0,0E0,0E0,0E0,1.5350342E-1,0E0,2.1942711E-1,0E0,2.2815514E-1,0E0,0E0],"parents":[2147483647,0,0,1,1,2,2,4,4,5,5,10,10,12,12,14,14],"right_children":[2,4,6,-1,8,10,-1,-1,-1,-1,12,-1,14,-1,16,-1,-1],"split_conditions":[5E-1,5E-1,5E-1,-1.461545E-1,5E-1,5E-1,-1.1367994E-1,-1.029275E-1,1.0671662E-1,1.02161795E-1,5E-1,1.0726175E-1,5E-1,1.06689855E-1,5E-1,9.932805E-2,3.5593712E-1],"split_indices":[28,126,129,0,0,45,0,0,0,0,0,0,130,0,121,0,0],"split_type":[0,0,0,0,0,0,0,0,0,0,0,0,0,0,0,0,0],"sum_hessian":[5.601618E1,3.240484E1,2.3611338E1,2.8716898E1,3.6879413E0,2.053687E1,3.0744677E0,2.1580062E0,1.5299352E0,1.5848863E0,1.8951982E1,1.5427659E0,1.7409218E1,1.5293058E0,1.5879911E1,1.2834221E0,1.4596489E1],"tree_param":{"num_deleted":"0","num_feature":"131","num_nodes":"17","size_leaf_vector":"0"}},{"base_weights":[-2.1081828E-2,-4.8850313E-1,5.6799227E-1,6.3255906E-1,-2.988577E-1,9.156993E-2,6.739861E-1],"categories":[],"categories_nodes":[],"categories_segments":[],"categories_sizes":[],"default_left":[1,0,1,1,0,0,0],"id":111,"left_children":[1,-1,3,5,-1,-1,-1],"loss_changes":[1.6079777E1,0E0,1.6360626E0,4.847269E-1,0E0,0E0,0E0],"parents":[2147483647,0,0,2,2,3,3],"right_children":[2,-1,4,6,-1,-1,-1],"split_conditions":[5E-1,-1.4655094E-1,5E-1,5E-1,-8.965731E-2,2.747098E-2,2.0219584E-1],"split_indices":[68,0,60,121,0,0,0],"split_type":[0,0,0,0,0,0,0],"sum_hessian":[5.6390785E1,3.1537216E1,2.485357E1,2.3382238E1,1.4713328E0,1.8915219E0,2.1490717E1],"tree_param":{"num_deleted":"0","num_feature":"131","num_nodes":"7","size_leaf_vector":"0"}},{"base_weights":[-4.7972016E-3,-4.575215E-1,6.7452985E-1,-4.8939258E-1,3.0279678E-1,1.4245964E0,5.662576E-1],"categories":[],"categories_nodes":[],"categories_segments":[],"categories_sizes":[],"default_left":[1,1,1,0,0,0,0],"id":112,"left_children":[1,3,5,-1,-1,-1,-1],"loss_changes":[1.822226E1,1.0096116E0,1.1178493E0,0E0,0E0,0E0,0E0],"parents":[2147483647,0,0,1,1,2,2],"right_children":[2,4,6,-1,-1,-1,-1],"split_conditions":[5E-1,5E-1,5E-1,-1.4681777E-1,9.0839036E-2,4.2737895E-1,1.6987729E-1],"split_indices":[49,120,120,0,0,0,0],"split_type":[0,0,0,0,0,0,0],"sum_hessian":[5.72467E1,3.454882E1,2.2697882E1,3.350086E1,1.0479594E0,1.3295758E0,2.1368305E1],"tree_param":{"num_deleted":"0","num_feature":"131","num_nodes":"7","size_leaf_vector":"0"}},{"base_weights":[-9.449685E-3,-4.4462746E-1,6.7425394E-1,-4.8936424E-1,3.5209024E-1],"categories":[],"categories_nodes":[],"categories_segments":[],"categories_sizes":[],"default_left":[1,1,0,0,0],"id":113,"left_children":[1,3,-1,-1,-1],"loss_changes":[1.7615826E1,1.4613352E0,0E0,0E0,0E0],"parents":[2147483647,0,0,1,1],"right_children":[2,4,-1,-1,-1],"split_conditions":[5E-1,5E-1,2.0227619E-1,-1.4680928E-1,1.05627075E-1],"split_indices":[46,57,0,0,0],"split_type":[0,0,0,0,0],"sum_hessian":[5.719878E1,3.5165558E1,2.2033222E1,3.366121E1,1.5043483E0],"tree_param":{"num_deleted":"0","num_feature":"131","num_nodes":"5","size_leaf_vector":"0"}},{"base_weights":[-2.1629881E-2,-4.2329076E-1,6.850605E-1,-4.8933E-1,4.0693122E-1],"categories":[],"categories_nodes":[],"categories_segments":[],"categories_sizes":[],"default_left":[1,1,0,0,0],"id":114,"left_children":[1,3,-1,-1,-1],"loss_changes":[1.6442518E1,2.2223115E0,0E0,0E0,0E0],"parents":[2147483647,0,0,1,1],"right_children":[2,4,-1,-1,-1],"split_conditions":[5E-1,5E-1,2.0551816E-1,-1.46799E-1,1.2207937E-1],"split_indices":[124,4,0,0,0],"split_type":[0,0,0,0,0],"sum_hessian":[5.5905212E1,3.5901142E1,2.000407E1,3.3636185E1,2.2649558E0],"tree_param":{"num_deleted":"0","num_feature":"131","num_nodes":"5","size_leaf_vector":"0"}},{"base_weights":[-2.3960728E-2,-4.5680007E-1,6.834215E-1,-4.8934814E-1,3.0788052E-1],"categories":[],"categories_nodes":[],"categories_segments":[],"categories_sizes":[],"default_left":[1,1,0,0,0],"id":115,"left_children":[1,3,-1,-1,-1],"loss_changes":[1.7651663E1,1.0400081E0,0E0,0E0,0E0],"parents":[2147483647,0,0,1,1],"right_children":[2,4,-1,-1,-1],"split_conditions":[5E-1,5E-1,2.0502646E-1,-1.4680445E-1,9.236416E-2],"split_indices":[51,80,0,0,0],"split_type":[0,0,0,0,0],"sum_hessian":[5.563111E1,3.4732758E1,2.0898352E1,3.3660103E1,1.0726553E0],"tree_param":{"num_deleted":"0","num_feature":"131","num_nodes":"5","size_leaf_vector":"0"}},{"base_weights":[-5.4152694E-2,-4.8933432E-1,5.688653E-1],"categories":[],"categories_nodes":[],"categories_segments":[],"categories_sizes":[],"default_left":[1,0,0],"id":116,"left_children":[1,-1,-1],